{"learner":{"attributes":{"best_iteration":"346","best_ntree_limit":"347","best_score":"68.22886431486137","scikit_learn":"{\"n_estimators\": 1000, \"objective\": \"reg:squarederror\", \"max_depth\": null, \"max_leaves\": null, \"max_bin\": null, \"grow_policy\": null, \"learning_rate\": 0.01, \"verbosity\": null, \"booster\": null, \"tree_method\": null, \"gamma\": null, \"min_child_weight\": null, \"max_delta_step\": null, \"subsample\": null, \"sampling_method\": null, \"colsample_bytree\": null, \"colsample_bylevel\": null, \"colsample_bynode\": null, \"reg_alpha\": null, \"reg_lambda\": null, \"scale_pos_weight\": null, \"base_score\": 0.5, \"missing\": NaN, \"num_parallel_tree\": null, \"random_state\": null, \"n_jobs\": null, \"monotone_constraints\": null, \"interaction_constraints\": null, \"importance_type\": null, \"gpu_id\": null, \"validate_parameters\": null, \"predictor\": null, \"enable_categorical\": false, \"feature_types\": null, \"max_cat_to_onehot\": null, \"max_cat_threshold\": null, \"eval_metric\": null, \"early_stopping_rounds\": 50, \"callbacks\": null, \"evals_result_\": {\"validation_0\": {\"rmse\": [257.07869743427017, 255.80813141097892, 254.5453400906223, 253.30331380432625, 252.0693576211394, 250.84948796138653, 249.6521773968016, 248.4623789366545, 247.25370068724197, 246.05803461453186, 244.8746017664786, 243.7035233305336, 242.54461794591242, 241.39824799833622, 240.26334506907298, 239.14101585630885, 238.03014960881032, 236.93115026322155, 235.84376303960084, 234.76812777778719, 233.70374835657054, 232.65026216421614, 231.60669338890094, 230.57513000093783, 229.5466114287456, 228.53083553933206, 227.52526803807118, 226.53067912900408, 225.54489058117798, 224.57089118949634, 223.6059656161782, 222.6514980227133, 221.70796186971387, 220.77494391600288, 219.84807352010773, 218.9341407189336, 218.0258189390762, 217.12952361454177, 216.24017215865814, 215.3603547465641, 214.48918655800875, 213.628043344084, 212.7737478149949, 211.9316718782195, 211.09922925419704, 210.27451902193474, 209.45755934580012, 208.64903599884045, 207.84559634613595, 207.0512092873778, 206.21613124803068, 205.44021457852332, 204.62000792783917, 203.8521861356976, 203.04910465857014, 202.30367723854357, 201.50960080117915, 200.73056324102902, 200.0081487294476, 199.24444467312404, 198.52993593402104, 197.78311954166315, 197.08438154079894, 196.34416781662736, 195.61964323056446, 194.9334705633364, 194.21189373870718, 193.54796895870535, 192.8425684506785, 192.19783176928323, 191.50917620502972, 190.85981220664496, 190.19164749439096, 189.56224360194568, 188.9100183235467, 188.2875682099949, 187.64566814674035, 187.04245147634745, 186.399649482404, 185.8125861307355, 185.18198088134187, 184.5982877163663, 183.99532778228595, 183.41650883208308, 182.82311867246807, 182.24783680468698, 181.67405530641688, 181.09730012161506, 180.54082375602954, 179.99483246127633, 179.42373997291443, 178.9059572034919, 178.34711130184465, 177.81222410449465, 177.30841269787632, 176.78344370925456, 176.25042083664604, 175.73843427658488, 175.24953039051758, 174.75601447396934, 174.24101804482467, 173.74939009786303, 173.26441226977767, 172.79331294720538, 172.3137050036571, 171.84416099173282, 171.36161223594294, 170.91202963791662, 170.4568327227507, 169.98937880037042, 169.55911630196022, 169.11911504516652, 168.67205181374737, 168.26452608044943, 167.82686787324198, 167.40066699371172, 166.9838115014242, 166.57430763710238, 166.17841639888056, 165.75565412665216, 165.35761333739265, 164.94706037685114, 164.55956404757765, 164.17590309422474, 163.79322545607945, 163.41663031972158, 163.0287203533211, 162.66161305277006, 162.30587260027625, 161.92670366234213, 161.57532412435097, 161.22505235911032, 160.86259588186263, 160.52025691449202, 160.18229087334566, 159.83608106976325, 159.49047497159492, 159.15586155540976, 158.80403722717205, 158.4752151709637, 158.1476923156703, 157.82889827549914, 157.51199315795733, 157.17637563779013, 156.8588415036543, 156.55448491611904, 156.2484567176143, 155.94323494816464, 155.64671788818364, 155.3459714458446, 155.0408460140927, 154.75407979357712, 154.46951853705656, 154.1874991408706, 153.90943506194935, 153.6317443659382, 153.35110522163603, 153.07098000603182, 152.80103016704362, 152.5314083729851, 152.27350389836363, 152.00947300757028, 151.75054524155482, 151.49785712241953, 151.25042798880224, 150.99466121696491, 150.74441982349046, 150.4982353370114, 150.26102622080884, 150.00829808713112, 149.76976724836075, 149.5304936136258, 149.28150057104006, 149.04873543280618, 148.81268406843301, 148.57176474472874, 148.35022460812115, 148.1308137417506, 147.90489349899892, 147.68622697731837, 147.4455744416908, 147.23116891688062, 147.02357539632112, 146.81413330402378, 146.60131561299613, 146.3975805386915, 146.19331353036068, 145.9765721854637, 145.7796458612375, 145.58422292334205, 145.38639987596343, 145.19430077010568, 145.01382146800913, 144.81626690548242, 144.63033745235379, 144.4388676698435, 144.25532009606704, 144.07377213717, 143.88613543039176, 143.7174520569417, 143.54638418584923, 143.37106874678213, 143.2040338388943, 143.04358450299924, 142.87549153268324, 142.71285590964663, 142.5511706718681, 142.3780722083342, 142.21287730081215, 142.05642800044544, 141.89502420484013, 141.74472899652946, 141.59597856150214, 141.4132221869682, 141.2528132712131, 141.09685469735552, 140.94208839020862, 140.7842124056391, 140.62878855618854, 140.49354901974354, 140.33597100738427, 140.18142654840815, 140.02908911880442, 139.87896050281608, 139.7295952937387, 139.5801697225826, 139.41786070587625, 139.27506733536026, 139.13713281107889, 138.99749143195592, 138.8595996950328, 138.72493246568493, 138.5887533744262, 138.460628823635, 138.3094407889531, 138.18948288688634, 138.05847360338225, 137.9309873593836, 137.79839598193342, 137.67573027432107, 137.4387834911638, 137.20588564027068, 137.08367849427208, 136.9616006864538, 136.83810779572556, 136.61197521414945, 136.38971856856702, 136.27285209358556, 136.05503562776985, 135.83807664688467, 135.71889242927634, 135.60727977066014, 135.49376822881536, 135.3961510574999, 135.18582623321223, 135.07214676169832, 134.96557040741112, 134.7628781330641, 134.56086101065182, 134.3649237942235, 134.1695780129838, 134.0633613169889, 133.97036401094047, 133.70411152594247, 133.43945205379168, 133.1814679154915, 132.9249984202159, 132.6750521395843, 132.4265402096757, 132.18440443707965, 131.9436254429576, 131.70907378190284, 131.50914825521275, 131.30190359062223, 131.08479500528537, 130.8855071747121, 130.67396662902652, 130.4776180647745, 130.2947201927459, 130.08295841036986, 129.91164255563848, 129.7324390956761, 129.54615002385486, 129.38537097264123, 129.22204545068954, 129.04268189479734, 128.87722263235406, 128.68883662957782, 128.53384557763135, 128.37507259834285, 128.19341500362643, 128.04951802507898, 127.87486572816567, 127.72959751289436, 127.57067229793348, 127.43156146515105, 127.28169484627219, 127.13226556214887, 127.03847633637803, 126.89215998330923, 126.74190232764697, 126.59782874894, 126.50722115077666, 126.36869052676002, 126.22358510224835, 126.08709387442289, 126.04017813133376, 125.89990131330507, 125.76409383026085, 125.63509259884358, 125.58980979836103, 125.45661972569906, 125.3322701105198, 125.28801689873832, 125.15867777308843, 125.11529101097993, 124.9945075898453, 124.86645823063756, 124.74828748697666, 124.706322507429, 124.58176271355201, 124.5406191981384, 124.42660337734208, 124.34918297321023, 124.23129973781016, 124.19153837119597, 124.08164586667021, 124.00642387109163, 123.89848608704987, 123.86000850464815, 123.74593719290797, 123.67272961188435, 123.568737425238, 123.52949736322688, 123.42148492313788, 123.37558624274341, 123.30455956927707, 123.26153658968637, 123.16183409857173, 123.09217376224889, 123.04402967885189, 123.00337087817817, 122.95626876446016, 122.84256486293813, 122.80032862043697, 122.70570250442077, 122.65581761090574, 122.6066726737739, 122.55845308931237, 122.51808367957284, 122.42826701637034, 122.38135526608986, 122.29315394313916, 122.24721016510836, 122.16040587073037, 122.07459455298695, 122.02968247016182, 121.94541951621079, 121.86184660206474, 121.8179774910344, 121.73619090174141, 121.65522583270891, 121.60051738074672, 121.54790466306085, 121.49410697512626, 121.44107707604067, 121.3895201992497, 121.33734183015481, 121.28682171203774, 121.23552145729654, 121.18487416564587, 121.13541577977323, 121.0856057554005, 121.03713313404053, 120.98808120297102, 120.93971652873061, 120.89222577455124, 120.8445982038595, 120.8014342391257, 120.75453812220368, 120.70880660120477, 120.66310893079833, 120.61811302074223, 120.57328288943705, 120.52901655602444, 120.49375560011961, 120.45013366898164, 120.40668471990585, 120.36319457668878, 120.32044789983463, 120.27782112053407, 120.23417033038642, 120.1909188154595, 120.14837223467362, 120.11197990863207, 120.07025289971949, 120.0287667137332]}, \"validation_1\": {\"rmse\": [71.2448749579871, 71.19876827645525, 71.15382698967287, 71.11003010780789, 71.06735648580863, 71.02578247607977, 70.98528831402123, 70.94585355964666, 70.89712972089457, 70.85267314658702, 70.80937882632227, 70.76722662645966, 70.7261922805495, 70.6862539662438, 70.65131092366944, 70.61347248639461, 70.58328108642392, 70.5475704171827, 70.51926586857935, 70.48548054468534, 70.45826746114302, 70.4263420881588, 70.40123935066134, 70.37101394254951, 70.34264721814661, 70.31503556131125, 70.28867889890742, 70.25891257468687, 70.23357908691749, 70.20910272656468, 70.18480387779782, 70.16114383050554, 70.13864879544865, 70.11671403042044, 70.09513663805153, 70.07303207222932, 70.05292113784064, 70.03288225729327, 70.01356452358719, 69.99471598196817, 69.97673172516991, 69.9590708438786, 69.93729790816282, 69.92064394710368, 69.8994010017435, 69.88393583122622, 69.86869203806364, 69.8479520100098, 69.83331619469068, 69.81546003520666, 69.80187803552988, 69.7879298459337, 69.77517058787757, 69.75676477437183, 69.73376491984988, 69.71773084286869, 69.70052488408902, 69.6817609553871, 69.66977048904381, 69.65159832307691, 69.63501316797725, 69.61856245495184, 69.60769586857855, 69.56727849191653, 69.55329374617398, 69.54001700884783, 69.50050634491426, 69.4863518817091, 69.4775509135661, 69.46909053509377, 69.42641526575547, 69.41603857436182, 69.39937438912831, 69.35809241546796, 69.34357063555403, 69.3368501541212, 69.32782553511282, 69.28817634847027, 69.27710511148499, 69.26373024583555, 69.2543948192513, 69.22092291664832, 69.21073839329881, 69.20171318896182, 69.19323145037437, 69.1609036271252, 69.15363287604832, 69.14529331618175, 69.11176414260011, 69.10373636970341, 69.09723290827601, 69.09136733585346, 69.05979716143948, 69.0537542095505, 69.04546408320633, 69.04012655442665, 69.01094118267882, 69.00412927872866, 68.99544768191872, 68.97810918482209, 68.97300052043303, 68.96672851104844, 68.9498018510947, 68.94617978723394, 68.9387535212855, 68.92236264663626, 68.91689367719573, 68.91312334108035, 68.89720838228969, 68.89302159481396, 68.88620482122252, 68.8719510141375, 68.8644248089541, 68.85784272448251, 68.84981878874865, 68.83825789241533, 68.83138930486015, 68.8253843163097, 68.81839965840157, 68.80775964681091, 68.80653958346625, 68.79580756648708, 68.79230685202809, 68.78622804383508, 68.77610516205351, 68.77222326338486, 68.77070353388133, 68.76065164316655, 68.75917713985939, 68.75653009554054, 68.7586728619633, 68.74985837485946, 68.74689298073102, 68.7445937119565, 68.73164755064217, 68.72660899620602, 68.72976605729518, 68.72795528158305, 68.7190826897845, 68.71591518560919, 68.71489653554711, 68.69543354027955, 68.69353186218066, 68.69172594186098, 68.68407392482914, 68.68075577334747, 68.68019368832844, 68.6790133601799, 68.67168753851703, 68.67208391036408, 68.67024987616317, 68.66887055875515, 68.66343722064931, 68.66423958162774, 68.66383681438784, 68.65780776523465, 68.65595054566732, 68.6572975089734, 68.6555107646561, 68.64965113058854, 68.64144640159881, 68.64513972057618, 68.64613979949397, 68.62782659006206, 68.61934859701567, 68.62251723580565, 68.62140687480992, 68.60323123122164, 68.60707694202029, 68.60679230233754, 68.58750158028238, 68.57905619863769, 68.57847143104821, 68.55997828182166, 68.55174680261379, 68.55633155522656, 68.55665049258712, 68.5613487671198, 68.56040516029054, 68.54253733386811, 68.53554427306139, 68.53982302815606, 68.5407257174662, 68.52500039618613, 68.52025653209577, 68.5063345750904, 68.50404777390575, 68.5025574743404, 68.48865870067608, 68.48579454577411, 68.48217114338982, 68.4678535452844, 68.46435309889404, 68.45092187530139, 68.44822792863825, 68.4507540105045, 68.44821338382411, 68.43379926980668, 68.43073373743721, 68.4157490004466, 68.41890701780456, 68.41620341413521, 68.41605382228876, 68.4152090781224, 68.40075693339449, 68.39913514576486, 68.40214309314884, 68.41142366307564, 68.4097538431248, 68.39670460927704, 68.39515669146112, 68.39721598574376, 68.396202076153, 68.39616438023694, 68.3979086658537, 68.40236481801979, 68.40094796919816, 68.397089567199, 68.39661725268924, 68.3941779302073, 68.39188961570507, 68.3904171242357, 68.39140244984411, 68.3922487182338, 68.3930849473387, 68.39216345743465, 68.39179910434773, 68.39043192956888, 68.38955912033943, 68.390487307521, 68.39003294564102, 68.38869852510338, 68.3836275827306, 68.38841951660038, 68.38420672393143, 68.3879870035402, 68.38993922706193, 68.38985134137621, 68.38538741870894, 68.38496456131024, 68.37990831612558, 68.37478816763625, 68.37424620343894, 68.37715008521496, 68.37741077353789, 68.37273929877111, 68.36799276834239, 68.36763087554408, 68.36332590200978, 68.35873446983342, 68.35799481317915, 68.35738615703362, 68.36094840629544, 68.35861225148307, 68.35422585957525, 68.35364867171461, 68.35046604316919, 68.34649423159084, 68.34247285861198, 68.33880766778556, 68.33508434240714, 68.33904090446592, 68.34001509006757, 68.33664970480015, 68.33333999253554, 68.33024724134819, 68.32720183170474, 68.324369632421, 68.32157664498223, 68.3189908904649, 68.31643682165517, 68.31408544633648, 68.3120257346962, 68.30870747862392, 68.30520854783546, 68.30178973913533, 68.2985118179812, 68.29512579237787, 68.29477013857706, 68.29183754879908, 68.29141994472864, 68.29095560762303, 68.29239979112148, 68.29419697518742, 68.29397822239262, 68.29524319314207, 68.29147939198619, 68.28786714551013, 68.2875787506606, 68.28413355046649, 68.28082866615145, 68.28245610229493, 68.27836448192923, 68.27995761586575, 68.27913786717468, 68.27522762176527, 68.274713695862, 68.28150782321778, 68.27778402971919, 68.2845972482941, 68.27935917684604, 68.28621144128236, 68.28268385981801, 68.28797125269762, 68.28300743566284, 68.28988257475798, 68.28655542814235, 68.28178092631829, 68.27861057987813, 68.28545735838468, 68.2824246237831, 68.27938723593387, 68.2862392672366, 68.28337582270588, 68.28047144080983, 68.27776725212765, 68.280594594473, 68.2780100565156, 68.28077926584287, 68.27831292510773, 68.27559216442295, 68.27326884252787, 68.27590921858148, 68.27368823370652, 68.26946635215057, 68.26734662172304, 68.27016056968523, 68.2703020464294, 68.27305393327522, 68.27113706917127, 68.2688521521178, 68.2701777776288, 68.27280804209538, 68.26577425331816, 68.26375241545838, 68.25810349371496, 68.2585550525828, 68.25308348430312, 68.25555166288343, 68.25705730321589, 68.25088741165588, 68.24039861557424, 68.23530969072559, 68.233361032937, 68.23630505921315, 68.23452511187924, 68.22886431486137, 68.23301204075533, 68.23668208586392, 68.24132993442902, 68.24244717668526, 68.24655655317231, 68.24623789955442, 68.25055755798077, 68.25354072403002, 68.25359640051887, 68.25871413610807, 68.25709947469494, 68.25986403215985, 68.26447384492349, 68.26291593415448, 68.26598772167466, 68.26561698099688, 68.27041838223244, 68.26952699734548, 68.26910328613133, 68.2648891515968, 68.26404650101523, 68.26916055373187, 68.26883069291775, 68.26795975119153, 68.27382837769093, 68.27583641232677, 68.28125474094227, 68.2804840310292, 68.28008170187293, 68.28626374959411, 68.28558124248583, 68.28119672387304, 68.28087673211782, 68.2801421910685, 68.28607132106556, 68.28541353587742, 68.29196345234728, 68.29073962406117, 68.29723485941057, 68.2966011743037, 68.29597880685469, 68.30225103713963, 68.30122065815331, 68.3074040370002, 68.3035500955397, 68.30360894847672, 68.30374077509104, 68.29957262015621, 68.29903181413822, 68.29547444954265]}}, \"_estimator_type\": \"regressor\"}"},"feature_names":["EventType","StatusCreatedDayofWeek","StatusCreatedQuarter","StatusCreatedDayofyear","StatusCreatedMonth","StatusCreatedYear","StatusCreatedDayofMonth","StatusCreatedWeekofYear","Weeks to Event"],"feature_types":["int","int","int","int","int","int","int","int","float"],"gradient_booster":{"model":{"gbtree_model_param":{"num_parallel_tree":"1","num_trees":"397","size_leaf_vector":"0"},"tree_info":[0,0,0,0,0,0,0,0,0,0,0,0,0,0,0,0,0,0,0,0,0,0,0,0,0,0,0,0,0,0,0,0,0,0,0,0,0,0,0,0,0,0,0,0,0,0,0,0,0,0,0,0,0,0,0,0,0,0,0,0,0,0,0,0,0,0,0,0,0,0,0,0,0,0,0,0,0,0,0,0,0,0,0,0,0,0,0,0,0,0,0,0,0,0,0,0,0,0,0,0,0,0,0,0,0,0,0,0,0,0,0,0,0,0,0,0,0,0,0,0,0,0,0,0,0,0,0,0,0,0,0,0,0,0,0,0,0,0,0,0,0,0,0,0,0,0,0,0,0,0,0,0,0,0,0,0,0,0,0,0,0,0,0,0,0,0,0,0,0,0,0,0,0,0,0,0,0,0,0,0,0,0,0,0,0,0,0,0,0,0,0,0,0,0,0,0,0,0,0,0,0,0,0,0,0,0,0,0,0,0,0,0,0,0,0,0,0,0,0,0,0,0,0,0,0,0,0,0,0,0,0,0,0,0,0,0,0,0,0,0,0,0,0,0,0,0,0,0,0,0,0,0,0,0,0,0,0,0,0,0,0,0,0,0,0,0,0,0,0,0,0,0,0,0,0,0,0,0,0,0,0,0,0,0,0,0,0,0,0,0,0,0,0,0,0,0,0,0,0,0,0,0,0,0,0,0,0,0,0,0,0,0,0,0,0,0,0,0,0,0,0,0,0,0,0,0,0,0,0,0,0,0,0,0,0,0,0,0,0,0,0,0,0,0,0,0,0,0,0,0,0,0,0,0,0,0,0,0,0,0,0,0,0,0,0,0,0,0,0,0,0,0,0,0,0,0,0,0,0,0,0,0,0,0,0,0,0,0,0,0,0,0,0,0,0,0,0],"trees":[{"base_weights":[4.463734E1,1.2327653E2,1.6869236E1,2.7222287E2,5.677109E1,5.2393353E1,1.0830946E1,2.1858357E2,9.261754E2,1.3550781E2,3.841897E1,2.1898521E1,1.3781133E2,2.2151758E1,7.627648E0,1.1585995E2,3.2455377E2,3.5633334E2,2.0471052E3,3.1033572E2,8.621116E1,2.0986765E2,3.404989E1,1.2754881E1,3.666373E1,3.979326E2,6.237288E0,1.2396201E1,3.4682693E1,1.0416356E1,2.73125E0,2.5786868E2,6.1131275E1,3.7919455E2,1.0432693E1,6.112083E2,2.34375E2,5.5268E3,7.5073334E2,8.590476E1,3.9839E2,4.9885498E1,1.2482645E2,5.422222E1,2.5567308E2,2.719091E2,3.2061516E1,1.8860083E1,5.9223742E0,5.136913E1,2.0283089E1,2.419649E2,6.552727E2,1.2833333E0,1.1232955E1,6.928375E0,1.7656E1,6.899812E1,4.8371334E0,1.3432924E1,1.5460614E0,5.125448E0,3.5367298E-1,4.5740277E2,1.4160156E2,4.642534E1,1.4289743E2,5.72805E2,2.7744073E2,6.177778E1,-3.068182E-1,8.082222E2,1.5125E1,5.264286E2,1.3079546E2,6.908625E3,-2.5E-1,2.2281818E2,1.762E3,5.230769E0,1.9288889E2,8.404286E2,3.1901135E2,7.9945656E1,3.3226746E1,3.0354166E2,1.0419546E2,3.729643E2,1.0969231E2,3.33E2,1.32E2,5.0070675E1,2.2098255E1,1.4286082E1,3.623E1,2.9940119E-2,2.437736E1,4.520979E1,1.6985715E2,3.7523808E0,7.3890625E1,3.66525E2,1.7003947E2,1.1148E3,5.534483E2,1.8828125E0,-1.8518518E-1,-3.3333334E-1,1.3425675E1,3.9260868E1,4.7272725E0,2.1991259E1,3.6833334E0,2.7487904E1,1.0451049E2,1.1925287E0,9.533582E0,8.344377E0,3.6021038E1,2.6666667E0,5.24173E-1,9.042697E0,6.768448E-1,-4.1904762E-2,1.0015625E0],"categories":[],"categories_nodes":[],"categories_segments":[],"categories_sizes":[],"default_left":[1,1,1,1,1,1,1,1,1,1,1,1,1,1,1,1,1,1,1,1,1,1,1,1,1,1,1,1,1,1,1,1,1,1,1,1,1,1,1,1,1,1,1,0,1,1,1,1,1,1,1,1,1,1,1,1,1,1,1,1,1,1,1,0,0,0,0,0,0,0,0,0,0,0,0,0,0,0,0,0,0,0,0,0,0,0,0,0,0,0,0,0,0,0,0,0,0,0,0,0,0,0,0,0,0,0,0,0,0,0,0,0,0,0,0,0,0,0,0,0,0,0,0,0,0],"id":0,"left_children":[1,3,5,7,9,11,13,15,17,19,21,23,25,27,29,31,33,35,37,39,41,43,45,47,49,51,53,55,57,59,61,63,65,67,69,71,73,75,77,79,81,83,85,-1,87,89,91,93,95,97,99,101,103,105,107,109,111,113,115,117,119,121,123,-1,-1,-1,-1,-1,-1,-1,-1,-1,-1,-1,-1,-1,-1,-1,-1,-1,-1,-1,-1,-1,-1,-1,-1,-1,-1,-1,-1,-1,-1,-1,-1,-1,-1,-1,-1,-1,-1,-1,-1,-1,-1,-1,-1,-1,-1,-1,-1,-1,-1,-1,-1,-1,-1,-1,-1,-1,-1,-1,-1,-1,-1],"loss_changes":[2.0500314E7,2.4253616E7,1.4880968E6,2.6316188E7,2.444045E6,2.6226265E6,2.1498494E5,7.582348E6,3.5679476E7,2.7311435E6,1.0235784E6,9.997816E4,9.067197E6,1.5946812E5,6.3137844E4,2.7588225E6,5.9004E6,1.069029E6,8.155944E7,1.349124E6,3.45857E5,2.2853662E5,6.264579E5,1.9118375E4,6.736909E4,3.413616E6,4.3660337E3,2.1073547E4,5.8548756E5,7.883459E4,9.561403E3,2.231957E6,3.0479994E5,5.613356E6,2.8692852E4,1.397016E6,7.7816725E5,3.8188816E7,7.615338E6,1.8023862E5,1.486314E6,6.2943844E4,4.1450812E5,0E0,4.042675E5,5.0062938E4,2.380735E5,1.8788773E4,2.3814377E4,1.01062125E5,1.20241914E5,4.483415E5,9.27123E5,7.957982E1,2.2363008E3,2.5648068E4,2.2634688E4,3.8924475E5,5.243458E3,2.5245406E5,8.563074E2,1.457968E4,2.1635132E2,0E0,0E0,0E0,0E0,0E0,0E0,0E0,0E0,0E0,0E0,0E0,0E0,0E0,0E0,0E0,0E0,0E0,0E0,0E0,0E0,0E0,0E0,0E0,0E0,0E0,0E0,0E0,0E0,0E0,0E0,0E0,0E0,0E0,0E0,0E0,0E0,0E0,0E0,0E0,0E0,0E0,0E0,0E0,0E0,0E0,0E0,0E0,0E0,0E0,0E0,0E0,0E0,0E0,0E0,0E0,0E0,0E0,0E0,0E0,0E0,0E0,0E0],"parents":[2147483647,0,0,1,1,2,2,3,3,4,4,5,5,6,6,7,7,8,8,9,9,10,10,11,11,12,12,13,13,14,14,15,15,16,16,17,17,18,18,19,19,20,20,21,21,22,22,23,23,24,24,25,25,26,26,27,27,28,28,29,29,30,30,31,31,32,32,33,33,34,34,35,35,36,36,37,37,38,38,39,39,40,40,41,41,42,42,44,44,45,45,46,46,47,47,48,48,49,49,50,50,51,51,52,52,53,53,54,54,55,55,56,56,57,57,58,58,59,59,60,60,61,61,62,62],"right_children":[2,4,6,8,10,12,14,16,18,20,22,24,26,28,30,32,34,36,38,40,42,44,46,48,50,52,54,56,58,60,62,64,66,68,70,72,74,76,78,80,82,84,86,-1,88,90,92,94,96,98,100,102,104,106,108,110,112,114,116,118,120,122,124,-1,-1,-1,-1,-1,-1,-1,-1,-1,-1,-1,-1,-1,-1,-1,-1,-1,-1,-1,-1,-1,-1,-1,-1,-1,-1,-1,-1,-1,-1,-1,-1,-1,-1,-1,-1,-1,-1,-1,-1,-1,-1,-1,-1,-1,-1,-1,-1,-1,-1,-1,-1,-1,-1,-1,-1,-1,-1,-1,-1,-1,-1],"split_conditions":[2.0205E3,3.5E0,1.5E0,1.45E1,5.5E0,1.75E1,4.5E0,1.65E1,2.05E1,5.55E1,6.5E0,1.95E1,1.85E1,1.65E1,1.35E1,4.5E0,2.0195E3,5E-1,2.25E1,2.05E1,1.65E1,7.5E0,7E0,6E0,6E0,1.95E1,2.05E1,1.55E1,1.85E1,1.85E1,3.25E1,1.075E2,1.45E1,1.395E2,4E1,9.95E1,3.5E0,2.5E0,2.75E1,1.35E1,2.65E1,9.5E0,8.65E1,5.422222E-1,1.15E1,3.5E0,9.5E0,1.55E1,1.65E1,3.05E1,1.65E1,6.5E0,4.05E1,3.95E1,4.75E1,1.5E0,6E0,1.75E1,2.05E1,1.75E1,2.75E1,1.55E1,1.75E1,4.5740275E0,1.4160156E0,4.6425337E-1,1.4289743E0,5.7280498E0,2.7744074E0,6.1777776E-1,-3.068182E-3,8.082222E0,1.5124999E-1,5.2642856E0,1.3079545E0,6.908625E1,-2.5E-3,2.2281816E0,1.7619999E1,5.230769E-2,1.9288888E0,8.404285E0,3.1901135E0,7.9945654E-1,3.3226746E-1,3.0354166E0,1.0419545E0,3.7296429E0,1.096923E0,3.33E0,1.3199999E0,5.0070673E-1,2.2098255E-1,1.4286081E-1,3.6229998E-1,2.9940117E-4,2.437736E-1,4.520979E-1,1.6985714E0,3.7523806E-2,7.389062E-1,3.6652498E0,1.7003947E0,1.1148E1,5.534483E0,1.8828124E-2,-1.8518517E-3,-3.3333334E-3,1.3425675E-1,3.9260867E-1,4.7272723E-2,2.1991259E-1,3.6833335E-2,2.7487904E-1,1.0451049E0,1.1925287E-2,9.533582E-2,8.344376E-2,3.6021036E-1,2.6666667E-2,5.2417303E-3,9.042697E-2,6.768448E-3,-4.190476E-4,1.0015625E-2],"split_indices":[5,8,8,0,8,0,8,6,6,3,3,6,0,0,8,6,5,8,6,3,6,8,0,0,0,6,0,6,0,0,7,3,6,3,3,3,6,8,6,3,3,0,3,0,8,2,8,6,0,6,0,6,3,7,3,6,0,0,0,0,7,6,0,0,0,0,0,0,0,0,0,0,0,0,0,0,0,0,0,0,0,0,0,0,0,0,0,0,0,0,0,0,0,0,0,0,0,0,0,0,0,0,0,0,0,0,0,0,0,0,0,0,0,0,0,0,0,0,0,0,0,0,0,0,0],"split_type":[0,0,0,0,0,0,0,0,0,0,0,0,0,0,0,0,0,0,0,0,0,0,0,0,0,0,0,0,0,0,0,0,0,0,0,0,0,0,0,0,0,0,0,0,0,0,0,0,0,0,0,0,0,0,0,0,0,0,0,0,0,0,0,0,0,0,0,0,0,0,0,0,0,0,0,0,0,0,0,0,0,0,0,0,0,0,0,0,0,0,0,0,0,0,0,0,0,0,0,0,0,0,0,0,0,0,0,0,0,0,0,0,0,0,0,0,0,0,0,0,0,0,0,0,0],"sum_hessian":[9.388E3,2.449E3,6.939E3,7.55E2,1.694E3,1.007E3,5.932E3,6.99E2,5.6E1,3.19E2,1.375E3,7.43E2,2.64E2,1.307E3,4.625E3,3.56E2,3.43E2,3.8E1,1.8E1,6.9E1,2.5E2,3.3E1,1.342E3,4.6E2,2.83E2,8.8E1,1.76E2,7.36E2,5.71E2,2.946E3,1.679E3,9.8E1,2.58E2,2.92E2,5.1E1,1.1E1,2.7E1,4E0,1.4E1,2E1,4.9E1,1.3E2,1.2E2,8E0,2.5E1,1E1,1.332E3,2.42E2,2.18E2,1.48E2,1.35E2,5.6E1,3.2E1,8.9E1,8.7E1,3.62E2,3.74E2,2.65E2,3.06E2,2.198E3,7.48E2,8.36E2,8.43E2,3.5E1,6.3E1,2.2E2,3.8E1,9.9E1,1.93E2,8E0,4.3E1,8E0,3E0,6E0,2.1E1,3E0,1E0,1E1,4E0,1.2E1,8E0,6E0,4.3E1,4.5E1,8.5E1,1.1E1,1.09E2,1.3E1,1.2E1,6E0,4E0,4.73E2,8.59E2,1.93E2,4.9E1,1.66E2,5.2E1,1.42E2,6E0,1.04E2,3.1E1,1.9E1,3.7E1,4E0,2.8E1,6.3E1,2.6E1,1.4E1,7.3E1,2.2E1,3.4E2,2.85E2,8.9E1,1.23E2,1.42E2,1.73E2,1.33E2,1.795E3,4.03E2,3.56E2,3.92E2,4.44E2,3.92E2,5.24E2,3.19E2],"tree_param":{"num_deleted":"0","num_feature":"9","num_nodes":"125","size_leaf_vector":"0"}},{"base_weights":[4.4210014E1,1.22105095E2,1.6704662E1,2.6966037E2,5.62208E1,5.189509E1,1.0723092E1,2.1642203E2,9.1873364E2,1.3421144E2,3.8042583E1,2.1684477E1,1.3651697E2,2.1931864E1,7.5514975E0,1.1472343E2,3.2133475E2,3.5314963E2,2.0313148E3,3.074263E2,8.53698E1,2.0792688E2,3.371339E1,1.2628957E1,3.63074E1,3.94201E2,6.1757507E0,1.2273184E1,3.433836E1,1.0312353E1,2.7040012E0,2.5535051E2,6.052727E1,3.754316E2,1.0340187E1,6.0578235E2,2.3226598E2,5.4853486E3,7.445492E2,8.514005E1,3.94638E2,4.64466E1,1.20670074E2,5.3740246E1,2.5330199E2,2.6961273E2,3.1741442E1,1.8673561E1,5.864265E0,2.6523203E1,6.0925568E1,2.396394E2,6.492255E2,1.2706887E0,1.1122113E1,6.860303E0,1.7480125E1,6.83131E1,4.7891116E0,1.3298797E1,1.5306435E0,5.07431E0,3.5014763E-1,4.529558E2,1.4020767E2,4.596319E1,1.415051E2,5.671342E2,2.746806E2,6.122864E1,-3.0381975E-1,8.01038E2,1.5011562E1,5.219163E2,1.2954695E2,6.8568105E3,-2.4875E-1,2.2079256E2,1.7479039E3,5.182485E0,1.9117432E2,8.332249E2,3.1589374E2,7.109371E1,3.1947634E1,3.0075922E2,1.0165558E2,3.6950107E2,1.0867976E2,3.3014572E2,1.30944E2,4.9571026E1,2.1877531E1,1.4143958E1,3.5874947E1,2.9642526E-2,2.4138184E1,2.134388E1,6.863559E1,1.1061E2,3.2045296E1,3.6304303E2,1.6838382E2,1.1058816E3,5.481046E2,1.8642786E0,-1.8340193E-1,2.4721146E1,9.061709E0,3.888533E1,4.6801386E0,2.1772116E1,3.6469092E0,2.721524E1,1.03472694E2,1.180672E0,9.438957E0,8.260979E0,3.566172E1,2.6400747E0,5.189446E-1,8.952473E0,6.7009354E-1,-4.1486505E-2,9.915782E-1],"categories":[],"categories_nodes":[],"categories_segments":[],"categories_sizes":[],"default_left":[1,1,1,1,1,1,1,1,1,1,1,1,1,1,1,1,1,1,1,1,1,1,1,1,1,1,1,1,1,1,1,1,1,1,1,1,1,1,1,1,1,1,1,0,1,1,1,1,1,1,1,1,1,1,1,1,1,1,1,1,1,1,1,0,0,0,0,0,0,0,0,0,0,0,0,0,0,0,0,0,0,0,0,0,0,0,0,0,0,0,0,0,0,0,0,0,0,0,0,0,0,0,0,0,0,0,0,0,0,0,0,0,0,0,0,0,0,0,0,0,0,0,0,0,0],"id":1,"left_children":[1,3,5,7,9,11,13,15,17,19,21,23,25,27,29,31,33,35,37,39,41,43,45,47,49,51,53,55,57,59,61,63,65,67,69,71,73,75,77,79,81,83,85,-1,87,89,91,93,95,97,99,101,103,105,107,109,111,113,115,117,119,121,123,-1,-1,-1,-1,-1,-1,-1,-1,-1,-1,-1,-1,-1,-1,-1,-1,-1,-1,-1,-1,-1,-1,-1,-1,-1,-1,-1,-1,-1,-1,-1,-1,-1,-1,-1,-1,-1,-1,-1,-1,-1,-1,-1,-1,-1,-1,-1,-1,-1,-1,-1,-1,-1,-1,-1,-1,-1,-1,-1,-1,-1,-1],"loss_changes":[2.0114188E7,2.3802704E7,1.4602715E6,2.5925188E7,2.397948E6,2.5739698E6,2.1075069E5,7.431772E6,3.5150356E7,2.680986E6,1.0049861E6,9.8060625E4,8.898082E6,1.5631669E5,6.1883E4,2.7054005E6,5.783512E6,1.0503255E6,8.0362E7,1.323418E6,3.3926925E5,2.242595E5,6.161804E5,1.8740727E4,6.679084E4,3.352534E6,4.280279E3,2.065211E4,5.739196E5,7.7267875E4,9.371545E3,2.189023E6,2.9895225E5,5.503292E6,2.818477E4,1.372191E6,7.654604E5,3.761813E7,7.4967825E6,1.7705233E5,1.463599E6,4.0969016E4,4.1800988E5,0E0,3.9677175E5,4.910375E4,2.333495E5,1.8426031E4,2.3349375E4,4.324836E4,1.1124747E5,4.400815E5,9.17717E5,7.8023926E1,2.2416992E3,2.5162604E4,2.2185102E4,3.8154988E5,5.139913E3,2.4744547E5,8.393152E2,1.42901875E4,2.120591E2,0E0,0E0,0E0,0E0,0E0,0E0,0E0,0E0,0E0,0E0,0E0,0E0,0E0,0E0,0E0,0E0,0E0,0E0,0E0,0E0,0E0,0E0,0E0,0E0,0E0,0E0,0E0,0E0,0E0,0E0,0E0,0E0,0E0,0E0,0E0,0E0,0E0,0E0,0E0,0E0,0E0,0E0,0E0,0E0,0E0,0E0,0E0,0E0,0E0,0E0,0E0,0E0,0E0,0E0,0E0,0E0,0E0,0E0,0E0,0E0,0E0,0E0],"parents":[2147483647,0,0,1,1,2,2,3,3,4,4,5,5,6,6,7,7,8,8,9,9,10,10,11,11,12,12,13,13,14,14,15,15,16,16,17,17,18,18,19,19,20,20,21,21,22,22,23,23,24,24,25,25,26,26,27,27,28,28,29,29,30,30,31,31,32,32,33,33,34,34,35,35,36,36,37,37,38,38,39,39,40,40,41,41,42,42,44,44,45,45,46,46,47,47,48,48,49,49,50,50,51,51,52,52,53,53,54,54,55,55,56,56,57,57,58,58,59,59,60,60,61,61,62,62],"right_children":[2,4,6,8,10,12,14,16,18,20,22,24,26,28,30,32,34,36,38,40,42,44,46,48,50,52,54,56,58,60,62,64,66,68,70,72,74,76,78,80,82,84,86,-1,88,90,92,94,96,98,100,102,104,106,108,110,112,114,116,118,120,122,124,-1,-1,-1,-1,-1,-1,-1,-1,-1,-1,-1,-1,-1,-1,-1,-1,-1,-1,-1,-1,-1,-1,-1,-1,-1,-1,-1,-1,-1,-1,-1,-1,-1,-1,-1,-1,-1,-1,-1,-1,-1,-1,-1,-1,-1,-1,-1,-1,-1,-1,-1,-1,-1,-1,-1,-1,-1,-1,-1,-1,-1,-1],"split_conditions":[2.0205E3,3.5E0,1.5E0,1.45E1,5.5E0,1.75E1,4.5E0,1.65E1,2.05E1,5.55E1,6.5E0,1.95E1,1.85E1,1.65E1,1.35E1,4.5E0,2.0195E3,5E-1,2.25E1,2.05E1,1.55E1,7.5E0,7E0,6E0,2.965E2,1.95E1,2.05E1,1.55E1,1.85E1,1.85E1,3.25E1,1.075E2,1.45E1,1.395E2,4E1,9.95E1,3.5E0,2.5E0,2.75E1,1.35E1,2.65E1,9.5E0,8.65E1,5.3740245E-1,1.15E1,3.5E0,9.5E0,1.55E1,1.65E1,1.65E1,3.245E2,6.5E0,4.05E1,3.95E1,4E0,1.5E0,6E0,1.75E1,2.05E1,1.75E1,2.75E1,1.55E1,1.75E1,4.529558E0,1.4020767E0,4.5963186E-1,1.415051E0,5.671342E0,2.746806E0,6.122864E-1,-3.0381973E-3,8.01038E0,1.5011562E-1,5.219163E0,1.2954695E0,6.856811E1,-2.4875E-3,2.2079256E0,1.7479038E1,5.182485E-2,1.9117432E0,8.332249E0,3.1589372E0,7.109371E-1,3.1947634E-1,3.0075922E0,1.0165558E0,3.6950107E0,1.0867976E0,3.3014572E0,1.30944E0,4.9571025E-1,2.187753E-1,1.4143957E-1,3.5874945E-1,2.9642525E-4,2.4138182E-1,2.134388E-1,6.863559E-1,1.1061E0,3.2045296E-1,3.6304302E0,1.6838381E0,1.1058816E1,5.481046E0,1.8642785E-2,-1.8340192E-3,2.4721146E-1,9.061709E-2,3.8885328E-1,4.6801385E-2,2.1772115E-1,3.646909E-2,2.721524E-1,1.034727E0,1.180672E-2,9.438957E-2,8.260979E-2,3.5661718E-1,2.6400747E-2,5.1894463E-3,8.952472E-2,6.7009353E-3,-4.1486503E-4,9.915782E-3],"split_indices":[5,8,8,0,8,0,8,6,6,3,3,6,0,0,8,6,5,8,6,3,6,8,0,0,3,6,0,6,0,0,7,3,6,3,3,3,6,8,6,3,3,0,3,0,8,2,8,6,0,0,3,6,3,7,6,6,0,0,0,0,7,6,0,0,0,0,0,0,0,0,0,0,0,0,0,0,0,0,0,0,0,0,0,0,0,0,0,0,0,0,0,0,0,0,0,0,0,0,0,0,0,0,0,0,0,0,0,0,0,0,0,0,0,0,0,0,0,0,0,0,0,0,0,0,0],"split_type":[0,0,0,0,0,0,0,0,0,0,0,0,0,0,0,0,0,0,0,0,0,0,0,0,0,0,0,0,0,0,0,0,0,0,0,0,0,0,0,0,0,0,0,0,0,0,0,0,0,0,0,0,0,0,0,0,0,0,0,0,0,0,0,0,0,0,0,0,0,0,0,0,0,0,0,0,0,0,0,0,0,0,0,0,0,0,0,0,0,0,0,0,0,0,0,0,0,0,0,0,0,0,0,0,0,0,0,0,0,0,0,0,0,0,0,0,0,0,0,0,0,0,0,0,0],"sum_hessian":[9.388E3,2.449E3,6.939E3,7.55E2,1.694E3,1.007E3,5.932E3,6.99E2,5.6E1,3.19E2,1.375E3,7.43E2,2.64E2,1.307E3,4.625E3,3.56E2,3.43E2,3.8E1,1.8E1,6.9E1,2.5E2,3.3E1,1.342E3,4.6E2,2.83E2,8.8E1,1.76E2,7.36E2,5.71E2,2.946E3,1.679E3,9.8E1,2.58E2,2.92E2,5.1E1,1.1E1,2.7E1,4E0,1.4E1,2E1,4.9E1,1.2E2,1.3E2,8E0,2.5E1,1E1,1.332E3,2.42E2,2.18E2,2.04E2,7.9E1,5.6E1,3.2E1,8.9E1,8.7E1,3.62E2,3.74E2,2.65E2,3.06E2,2.198E3,7.48E2,8.36E2,8.43E2,3.5E1,6.3E1,2.2E2,3.8E1,9.9E1,1.93E2,8E0,4.3E1,8E0,3E0,6E0,2.1E1,3E0,1E0,1E1,4E0,1.2E1,8E0,6E0,4.3E1,4.3E1,7.7E1,1.1E1,1.19E2,1.3E1,1.2E1,6E0,4E0,4.73E2,8.59E2,1.93E2,4.9E1,1.66E2,5.2E1,1.83E2,2.1E1,2.8E1,5.1E1,1.9E1,3.7E1,4E0,2.8E1,6.3E1,2.6E1,1E1,7.7E1,2.2E1,3.4E2,2.85E2,8.9E1,1.23E2,1.42E2,1.73E2,1.33E2,1.795E3,4.03E2,3.56E2,3.92E2,4.44E2,3.92E2,5.24E2,3.19E2],"tree_param":{"num_deleted":"0","num_feature":"9","num_nodes":"125","size_leaf_vector":"0"}},{"base_weights":[4.3786755E1,1.20944824E2,1.6541643E1,2.6712216E2,5.5675793E1,5.1401215E1,1.0616313E1,2.1428185E2,9.1135205E2,1.3292717E2,3.7669895E1,2.1471756E1,1.3523561E2,2.1714153E1,7.476107E0,1.1359806E2,3.1814764E2,3.4999442E2,2.0156466E3,3.0454425E2,8.453624E1,2.0600406E2,3.3380222E1,1.2504277E1,3.595252E1,3.9050455E2,6.115997E0,1.2151388E1,3.3997448E1,1.020939E1,2.677024E0,2.5285692E2,5.9929237E1,3.7170602E2,1.0248501E1,6.004046E2,2.3017598E2,5.4442085E3,7.384162E2,2.3694412E2,6.1153284E2,4.8896534E1,1.2242272E2,5.3262558E1,2.5095288E2,2.6733575E2,3.1424562E1,1.8488884E1,5.806726E0,5.0565144E1,1.9678743E1,2.3733624E2,6.432345E2,1.2581685E0,1.101473E1,6.7928996E0,1.7306002E1,6.763488E1,4.741566E0,1.3166008E1,1.5153792E0,5.0236816E0,3.4665743E-1,4.4855206E2,1.388275E2,4.5505634E1,1.4012633E2,5.615196E2,2.7194797E2,6.0684387E1,-3.008506E-1,9.392592E1,8.419032E2,5.1744275E2,1.2831036E2,6.8053843E3,-2.4750625E-1,2.1878535E2,1.7339208E3,5.871481E1,3.8549026E2,8.6972375E2,7.612076E1,7.84548E1,3.2517735E1,2.9800226E2,1.02155655E2,3.6606995E2,1.0767657E2,3.273159E2,1.2989645E2,4.907636E1,2.165901E1,1.4003247E1,3.5523373E1,2.9347885E-2,2.3901358E1,4.448975E1,1.6745314E2,3.385483E0,7.252604E1,3.5959412E2,1.667443E2,6.8547644E2,-7.6770196E0,1.845927E0,-1.8163583E-1,2.4496408E1,8.972254E0,3.8513382E1,4.6334743E0,2.1555155E1,3.6108453E0,2.6945284E1,1.024452E2,1.1689332E0,9.345272E0,8.178415E0,3.530599E1,2.6137478E0,5.137684E-1,8.86315E0,6.6340965E-1,-4.1072413E-2,9.816934E-1],"categories":[],"categories_nodes":[],"categories_segments":[],"categories_sizes":[],"default_left":[1,1,1,1,1,1,1,1,1,1,1,1,1,1,1,1,1,1,1,1,1,1,1,1,1,1,1,1,1,1,1,1,1,1,1,1,1,1,1,1,1,1,1,0,1,1,1,1,1,1,1,1,1,1,1,1,1,1,1,1,1,1,1,0,0,0,0,0,0,0,0,0,0,0,0,0,0,0,0,0,0,0,0,0,0,0,0,0,0,0,0,0,0,0,0,0,0,0,0,0,0,0,0,0,0,0,0,0,0,0,0,0,0,0,0,0,0,0,0,0,0,0,0,0,0],"id":2,"left_children":[1,3,5,7,9,11,13,15,17,19,21,23,25,27,29,31,33,35,37,39,41,43,45,47,49,51,53,55,57,59,61,63,65,67,69,71,73,75,77,79,81,83,85,-1,87,89,91,93,95,97,99,101,103,105,107,109,111,113,115,117,119,121,123,-1,-1,-1,-1,-1,-1,-1,-1,-1,-1,-1,-1,-1,-1,-1,-1,-1,-1,-1,-1,-1,-1,-1,-1,-1,-1,-1,-1,-1,-1,-1,-1,-1,-1,-1,-1,-1,-1,-1,-1,-1,-1,-1,-1,-1,-1,-1,-1,-1,-1,-1,-1,-1,-1,-1,-1,-1,-1,-1,-1,-1,-1],"loss_changes":[1.973537E7,2.336022E7,1.4329421E6,2.5539952E7,2.3527045E6,2.5262872E6,2.0659969E5,7.284178E6,3.4629068E7,2.631762E6,9.867311E5,9.616328E4,8.732072E6,1.532275E5,6.065308E4,2.653014E6,5.668948E6,1.031948E6,7.918211E7,1.3077735E6,3.3292975E5,2.2006225E5,6.060711E5,1.837054E4,6.654091E4,3.292548E6,4.1982476E3,2.023907E4,5.6258044E5,7.573231E4,9.185461E3,2.1469135E6,2.932168E5,5.39538E6,2.7685688E4,1.3886905E6,7.529599E5,3.7056E7,7.380066E6,1.539407E6,1.592659E6,6.086972E4,4.0013375E5,0E0,3.8941525E5,4.8162688E4,2.28719E5,1.8070312E4,2.2893457E4,9.836094E4,1.16857914E5,4.319735E5,9.12622E5,7.649844E1,2.20338E3,2.4686328E4,2.1744484E4,3.7400675E5,5.038413E3,2.4253628E5,8.2266064E2,1.4006439E4,2.0785202E2,0E0,0E0,0E0,0E0,0E0,0E0,0E0,0E0,0E0,0E0,0E0,0E0,0E0,0E0,0E0,0E0,0E0,0E0,0E0,0E0,0E0,0E0,0E0,0E0,0E0,0E0,0E0,0E0,0E0,0E0,0E0,0E0,0E0,0E0,0E0,0E0,0E0,0E0,0E0,0E0,0E0,0E0,0E0,0E0,0E0,0E0,0E0,0E0,0E0,0E0,0E0,0E0,0E0,0E0,0E0,0E0,0E0,0E0,0E0,0E0,0E0,0E0],"parents":[2147483647,0,0,1,1,2,2,3,3,4,4,5,5,6,6,7,7,8,8,9,9,10,10,11,11,12,12,13,13,14,14,15,15,16,16,17,17,18,18,19,19,20,20,21,21,22,22,23,23,24,24,25,25,26,26,27,27,28,28,29,29,30,30,31,31,32,32,33,33,34,34,35,35,36,36,37,37,38,38,39,39,40,40,41,41,42,42,44,44,45,45,46,46,47,47,48,48,49,49,50,50,51,51,52,52,53,53,54,54,55,55,56,56,57,57,58,58,59,59,60,60,61,61,62,62],"right_children":[2,4,6,8,10,12,14,16,18,20,22,24,26,28,30,32,34,36,38,40,42,44,46,48,50,52,54,56,58,60,62,64,66,68,70,72,74,76,78,80,82,84,86,-1,88,90,92,94,96,98,100,102,104,106,108,110,112,114,116,118,120,122,124,-1,-1,-1,-1,-1,-1,-1,-1,-1,-1,-1,-1,-1,-1,-1,-1,-1,-1,-1,-1,-1,-1,-1,-1,-1,-1,-1,-1,-1,-1,-1,-1,-1,-1,-1,-1,-1,-1,-1,-1,-1,-1,-1,-1,-1,-1,-1,-1,-1,-1,-1,-1,-1,-1,-1,-1,-1,-1,-1,-1,-1,-1],"split_conditions":[2.0205E3,3.5E0,1.5E0,1.45E1,5.5E0,1.75E1,4.5E0,1.65E1,2.05E1,5.55E1,6.5E0,1.95E1,1.85E1,1.65E1,1.35E1,4.5E0,2.0195E3,5E-1,2.25E1,1.45E1,1.65E1,7.5E0,7E0,6E0,6E0,1.95E1,2.05E1,1.55E1,1.85E1,1.85E1,3.25E1,1.075E2,1.45E1,1.395E2,4E1,5.4E1,3.5E0,2.5E0,2.75E1,1.35E1,4.35E1,9.5E0,8.65E1,5.3262556E-1,1.15E1,3.5E0,9.5E0,1.55E1,1.65E1,3.05E1,1.65E1,6.5E0,3.46E2,3.95E1,4E0,1.5E0,6E0,1.75E1,2.05E1,1.75E1,2.75E1,1.55E1,1.75E1,4.4855204E0,1.3882749E0,4.5505634E-1,1.4012632E0,5.6151958E0,2.7194796E0,6.068438E-1,-3.008506E-3,9.392592E-1,8.419032E0,5.1744275E0,1.2831036E0,6.805384E1,-2.4750624E-3,2.1878536E0,1.7339207E1,5.871481E-1,3.8549025E0,8.697237E0,7.612076E-1,7.8454804E-1,3.2517734E-1,2.9800224E0,1.0215565E0,3.6606994E0,1.0767657E0,3.2731588E0,1.2989645E0,4.9076357E-1,2.1659009E-1,1.4003247E-1,3.5523373E-1,2.9347884E-4,2.3901357E-1,4.448975E-1,1.6745313E0,3.385483E-2,7.252604E-1,3.595941E0,1.6674429E0,6.8547645E0,-7.6770194E-2,1.845927E-2,-1.8163582E-3,2.4496408E-1,8.972254E-2,3.851338E-1,4.6334743E-2,2.1555154E-1,3.6108453E-2,2.6945284E-1,1.024452E0,1.1689331E-2,9.345272E-2,8.178415E-2,3.530599E-1,2.6137479E-2,5.137684E-3,8.8631496E-2,6.634096E-3,-4.107241E-4,9.816933E-3],"split_indices":[5,8,8,0,8,0,8,6,6,3,3,6,0,0,8,6,5,8,6,0,6,8,0,0,0,6,0,6,0,0,7,3,6,3,3,3,6,8,6,6,3,0,3,0,8,2,8,6,0,6,0,6,3,7,6,6,0,0,0,0,7,6,0,0,0,0,0,0,0,0,0,0,0,0,0,0,0,0,0,0,0,0,0,0,0,0,0,0,0,0,0,0,0,0,0,0,0,0,0,0,0,0,0,0,0,0,0,0,0,0,0,0,0,0,0,0,0,0,0,0,0,0,0,0,0],"split_type":[0,0,0,0,0,0,0,0,0,0,0,0,0,0,0,0,0,0,0,0,0,0,0,0,0,0,0,0,0,0,0,0,0,0,0,0,0,0,0,0,0,0,0,0,0,0,0,0,0,0,0,0,0,0,0,0,0,0,0,0,0,0,0,0,0,0,0,0,0,0,0,0,0,0,0,0,0,0,0,0,0,0,0,0,0,0,0,0,0,0,0,0,0,0,0,0,0,0,0,0,0,0,0,0,0,0,0,0,0,0,0,0,0,0,0,0,0,0,0,0,0,0,0,0,0],"sum_hessian":[9.388E3,2.449E3,6.939E3,7.55E2,1.694E3,1.007E3,5.932E3,6.99E2,5.6E1,3.19E2,1.375E3,7.43E2,2.64E2,1.307E3,4.625E3,3.56E2,3.43E2,3.8E1,1.8E1,6.9E1,2.5E2,3.3E1,1.342E3,4.6E2,2.83E2,8.8E1,1.76E2,7.36E2,5.71E2,2.946E3,1.679E3,9.8E1,2.58E2,2.92E2,5.1E1,1.1E1,2.7E1,4E0,1.4E1,5.8E1,1.1E1,1.3E2,1.2E2,8E0,2.5E1,1E1,1.332E3,2.42E2,2.18E2,1.48E2,1.35E2,5.6E1,3.2E1,8.9E1,8.7E1,3.62E2,3.74E2,2.65E2,3.06E2,2.198E3,7.48E2,8.36E2,8.43E2,3.5E1,6.3E1,2.2E2,3.8E1,9.9E1,1.93E2,8E0,4.3E1,4E0,7E0,6E0,2.1E1,3E0,1E0,1E1,4E0,2.7E1,3.1E1,7E0,4E0,4.5E1,8.5E1,1.1E1,1.09E2,1.3E1,1.2E1,6E0,4E0,4.73E2,8.59E2,1.93E2,4.9E1,1.66E2,5.2E1,1.42E2,6E0,1.04E2,3.1E1,1.9E1,3.7E1,3E1,2E0,6.3E1,2.6E1,1E1,7.7E1,2.2E1,3.4E2,2.85E2,8.9E1,1.23E2,1.42E2,1.73E2,1.33E2,1.795E3,4.03E2,3.56E2,3.92E2,4.44E2,3.92E2,5.24E2,3.19E2],"tree_param":{"num_deleted":"0","num_feature":"9","num_nodes":"125","size_leaf_vector":"0"}},{"base_weights":[4.336681E1,1.1979645E2,1.6378916E1,2.6460977E2,5.5136475E1,5.090308E1,1.0510597E1,2.1216284E2,9.040525E2,1.316573E2,3.730086E1,2.1261896E1,1.3393001E2,2.1498604E1,7.4014697E0,1.12483734E2,3.1499216E2,3.4690002E2,2.0000995E3,3.016974E2,8.3711235E1,2.0409901E2,3.305035E1,1.2380828E1,3.560313E1,3.8673477E2,6.056822E0,1.2030801E1,3.365992E1,1.0107454E1,2.650316E0,2.5038768E2,5.9337112E1,3.680174E2,1.0157628E1,5.951804E2,2.2810484E2,5.4033765E3,7.323338E2,8.234753E1,3.8779037E2,4.5504913E1,1.1836203E2,5.2789112E1,2.4862556E2,2.6507806E2,3.1110847E1,1.8306032E1,5.7497516E0,5.0073715E1,1.9487537E1,2.350552E2,6.370075E2,1.2457718E0,1.0908386E1,1.1212806E1,4.601576E1,6.69634E1,4.6944933E0,1.3034546E1,1.5002671E0,4.9735584E0,3.43202E-1,4.4419113E2,1.3746092E2,4.505264E1,1.38761E2,5.559606E2,2.692425E2,6.014497E1,-2.9791045E-1,9.3174515E1,8.345365E2,5.130075E2,1.2708559E2,6.7543438E3,-2.4626872E-1,2.167964E2,1.7200493E3,4.592664E0,1.8551038E2,8.2139526E2,3.0999435E2,6.963222E1,3.1311243E1,2.9527054E2,9.968483E1,3.6267075E2,1.06682625E2,3.2451035E2,1.2885727E2,4.858663E1,2.144267E1,1.3863937E1,3.5175243E1,2.9056149E-2,2.3666853E1,4.4047966E1,1.6601782E2,3.351951E0,7.182345E1,3.5617795E2,1.6512073E2,1.0915508E3,5.3667224E2,1.8277562E0,-1.7988674E-1,2.1470206E0,1.3796311E1,3.8144997E1,1.0310583E1,6.3276245E1,3.825491E0,2.6678003E1,1.0142792E2,1.157311E0,9.252518E0,8.096677E0,3.49538E1,2.5876837E0,5.086438E-1,8.774717E0,6.5679246E-1,-4.0662475E-2,9.7190714E-1],"categories":[],"categories_nodes":[],"categories_segments":[],"categories_sizes":[],"default_left":[1,1,1,1,1,1,1,1,1,1,1,1,1,1,1,1,1,1,1,1,1,1,1,1,1,1,1,1,1,1,1,1,1,1,1,1,1,1,1,1,1,1,1,0,1,1,1,1,1,1,1,1,1,1,1,1,1,1,1,1,1,1,1,0,0,0,0,0,0,0,0,0,0,0,0,0,0,0,0,0,0,0,0,0,0,0,0,0,0,0,0,0,0,0,0,0,0,0,0,0,0,0,0,0,0,0,0,0,0,0,0,0,0,0,0,0,0,0,0,0,0,0,0,0,0],"id":3,"left_children":[1,3,5,7,9,11,13,15,17,19,21,23,25,27,29,31,33,35,37,39,41,43,45,47,49,51,53,55,57,59,61,63,65,67,69,71,73,75,77,79,81,83,85,-1,87,89,91,93,95,97,99,101,103,105,107,109,111,113,115,117,119,121,123,-1,-1,-1,-1,-1,-1,-1,-1,-1,-1,-1,-1,-1,-1,-1,-1,-1,-1,-1,-1,-1,-1,-1,-1,-1,-1,-1,-1,-1,-1,-1,-1,-1,-1,-1,-1,-1,-1,-1,-1,-1,-1,-1,-1,-1,-1,-1,-1,-1,-1,-1,-1,-1,-1,-1,-1,-1,-1,-1,-1,-1,-1],"loss_changes":[1.9364494E7,2.2926292E7,1.4055008E6,2.5162016E7,2.308418E6,2.4778575E6,2.0253069E5,7.139522E6,3.4114096E7,2.583625E6,9.68808E5,9.4319125E4,8.564299E6,1.5019938E5,5.9447594E4,2.6016415E6,5.556652E6,1.0145225E6,7.801952E7,1.2899805E6,3.2690775E5,2.1594375E5,5.961274E5,1.8007664E4,6.5253562E4,3.228821E6,4.1177886E3,1.997232E4,5.514651E5,7.422728E4,9.003067E3,2.1056155E6,2.8759125E5,5.289584E6,2.7195438E4,1.364141E6,7.406625E5,3.6502256E7,7.2651645E6,1.6759769E5,1.432009E6,3.925678E4,4.034105E5,0E0,3.8219488E5,4.72395E4,2.2418038E5,1.7721445E4,2.2446434E4,9.6786125E4,1.1460725E5,4.2401475E5,9.19217E5,7.500279E1,2.1969707E3,1.712614E4,1.213775E4,3.66613E5,4.938918E3,2.3772447E5,8.063362E2,1.3728328E4,2.0372842E2,0E0,0E0,0E0,0E0,0E0,0E0,0E0,0E0,0E0,0E0,0E0,0E0,0E0,0E0,0E0,0E0,0E0,0E0,0E0,0E0,0E0,0E0,0E0,0E0,0E0,0E0,0E0,0E0,0E0,0E0,0E0,0E0,0E0,0E0,0E0,0E0,0E0,0E0,0E0,0E0,0E0,0E0,0E0,0E0,0E0,0E0,0E0,0E0,0E0,0E0,0E0,0E0,0E0,0E0,0E0,0E0,0E0,0E0,0E0,0E0,0E0,0E0],"parents":[2147483647,0,0,1,1,2,2,3,3,4,4,5,5,6,6,7,7,8,8,9,9,10,10,11,11,12,12,13,13,14,14,15,15,16,16,17,17,18,18,19,19,20,20,21,21,22,22,23,23,24,24,25,25,26,26,27,27,28,28,29,29,30,30,31,31,32,32,33,33,34,34,35,35,36,36,37,37,38,38,39,39,40,40,41,41,42,42,44,44,45,45,46,46,47,47,48,48,49,49,50,50,51,51,52,52,53,53,54,54,55,55,56,56,57,57,58,58,59,59,60,60,61,61,62,62],"right_children":[2,4,6,8,10,12,14,16,18,20,22,24,26,28,30,32,34,36,38,40,42,44,46,48,50,52,54,56,58,60,62,64,66,68,70,72,74,76,78,80,82,84,86,-1,88,90,92,94,96,98,100,102,104,106,108,110,112,114,116,118,120,122,124,-1,-1,-1,-1,-1,-1,-1,-1,-1,-1,-1,-1,-1,-1,-1,-1,-1,-1,-1,-1,-1,-1,-1,-1,-1,-1,-1,-1,-1,-1,-1,-1,-1,-1,-1,-1,-1,-1,-1,-1,-1,-1,-1,-1,-1,-1,-1,-1,-1,-1,-1,-1,-1,-1,-1,-1,-1,-1,-1,-1,-1,-1],"split_conditions":[2.0205E3,3.5E0,1.5E0,1.45E1,5.5E0,1.75E1,4.5E0,1.65E1,2.05E1,5.55E1,6.5E0,1.95E1,1.85E1,1.65E1,1.35E1,4.5E0,2.0195E3,5E-1,2.25E1,2.05E1,1.55E1,7.5E0,7E0,6E0,6E0,1.95E1,2.05E1,3.05E1,1.85E1,1.85E1,3.25E1,1.075E2,1.45E1,1.395E2,4E1,5.4E1,3.5E0,2.5E0,2.75E1,1.35E1,2.65E1,9.5E0,8.65E1,5.278911E-1,1.15E1,3.5E0,9.5E0,1.55E1,1.65E1,3.05E1,1.65E1,6.5E0,4.05E1,3.95E1,7.55E1,1.5E0,6E0,1.75E1,2.05E1,1.75E1,2.75E1,1.55E1,1.75E1,4.441911E0,1.3746092E0,4.505264E-1,1.38761E0,5.5596056E0,2.6924248E0,6.0144967E-1,-2.9791044E-3,9.317451E-1,8.345365E0,5.130075E0,1.2708558E0,6.7543434E1,-2.4626872E-3,2.167964E0,1.7200493E1,4.5926638E-2,1.8551037E0,8.213952E0,3.0999434E0,6.9632214E-1,3.1311244E-1,2.9527054E0,9.968483E-1,3.6267073E0,1.0668262E0,3.2451034E0,1.2885727E0,4.858663E-1,2.144267E-1,1.3863938E-1,3.5175243E-1,2.9056147E-4,2.3666853E-1,4.4047964E-1,1.6601782E0,3.3519506E-2,7.182345E-1,3.5617795E0,1.6512072E0,1.0915507E1,5.366722E0,1.8277561E-2,-1.7988674E-3,2.1470206E-2,1.3796312E-1,3.8144997E-1,1.0310583E-1,6.3276243E-1,3.825491E-2,2.6678002E-1,1.0142791E0,1.157311E-2,9.252518E-2,8.096676E-2,3.49538E-1,2.5876837E-2,5.086438E-3,8.774717E-2,6.5679243E-3,-4.0662475E-4,9.719071E-3],"split_indices":[5,8,8,0,8,0,8,6,6,3,3,6,0,0,8,6,5,8,6,3,6,8,0,0,0,6,0,6,0,0,7,3,6,3,3,3,6,8,6,3,3,0,3,0,8,2,8,6,0,6,0,6,3,7,3,6,0,0,0,0,7,6,0,0,0,0,0,0,0,0,0,0,0,0,0,0,0,0,0,0,0,0,0,0,0,0,0,0,0,0,0,0,0,0,0,0,0,0,0,0,0,0,0,0,0,0,0,0,0,0,0,0,0,0,0,0,0,0,0,0,0,0,0,0,0],"split_type":[0,0,0,0,0,0,0,0,0,0,0,0,0,0,0,0,0,0,0,0,0,0,0,0,0,0,0,0,0,0,0,0,0,0,0,0,0,0,0,0,0,0,0,0,0,0,0,0,0,0,0,0,0,0,0,0,0,0,0,0,0,0,0,0,0,0,0,0,0,0,0,0,0,0,0,0,0,0,0,0,0,0,0,0,0,0,0,0,0,0,0,0,0,0,0,0,0,0,0,0,0,0,0,0,0,0,0,0,0,0,0,0,0,0,0,0,0,0,0,0,0,0,0,0,0],"sum_hessian":[9.388E3,2.449E3,6.939E3,7.55E2,1.694E3,1.007E3,5.932E3,6.99E2,5.6E1,3.19E2,1.375E3,7.43E2,2.64E2,1.307E3,4.625E3,3.56E2,3.43E2,3.8E1,1.8E1,6.9E1,2.5E2,3.3E1,1.342E3,4.6E2,2.83E2,8.8E1,1.76E2,7.36E2,5.71E2,2.946E3,1.679E3,9.8E1,2.58E2,2.92E2,5.1E1,1.1E1,2.7E1,4E0,1.4E1,2E1,4.9E1,1.2E2,1.3E2,8E0,2.5E1,1E1,1.332E3,2.42E2,2.18E2,1.48E2,1.35E2,5.6E1,3.2E1,8.9E1,8.7E1,7.2E2,1.6E1,2.65E2,3.06E2,2.198E3,7.48E2,8.36E2,8.43E2,3.5E1,6.3E1,2.2E2,3.8E1,9.9E1,1.93E2,8E0,4.3E1,4E0,7E0,6E0,2.1E1,3E0,1E0,1E1,4E0,1.2E1,8E0,6E0,4.3E1,4.3E1,7.7E1,1.1E1,1.19E2,1.3E1,1.2E1,6E0,4E0,4.73E2,8.59E2,1.93E2,4.9E1,1.66E2,5.2E1,1.42E2,6E0,1.04E2,3.1E1,1.9E1,3.7E1,4E0,2.8E1,6.3E1,2.6E1,2.2E1,6.5E1,2.2E1,6.98E2,1.1E1,5E0,1.23E2,1.42E2,1.73E2,1.33E2,1.795E3,4.03E2,3.56E2,3.92E2,4.44E2,3.92E2,5.24E2,3.19E2],"tree_param":{"num_deleted":"0","num_feature":"9","num_nodes":"125","size_leaf_vector":"0"}},{"base_weights":[4.2951897E1,1.1865878E2,1.6219213E1,2.621212E2,5.4602E1,5.0419098E1,1.0406014E1,2.1006479E2,8.968117E2,1.3039752E2,3.693545E1,2.1054089E1,1.3267249E2,2.128556E1,7.327577E0,1.1138033E2,3.1186795E2,3.43833E2,1.9846726E3,2.988692E2,8.289388E1,2.0221161E2,3.2723743E1,1.2258597E1,3.525714E1,3.8310895E2,5.9972477E0,1.1912061E1,3.332574E1,1.00065365E1,2.6238747E0,2.4794255E2,5.875084E1,3.6436542E2,1.0067561E1,5.900017E2,2.260524E2,5.362851E3,7.2630176E2,2.320247E2,6.026155E2,4.505821E1,1.17208565E2,5.2319874E1,2.4631982E2,2.6283945E2,3.0800264E1,1.812499E1,5.693336E0,2.5627388E1,5.9492672E1,2.3279613E2,6.3113086E2,1.2334971E0,1.0801114E1,6.606468E0,1.701611E1,6.6298584E1,4.647887E0,1.2904396E1,1.4853058E0,4.9239354E0,3.3978102E-1,4.3987262E2,1.3610779E2,4.460415E1,1.3740897E2,5.5045654E2,2.6656396E2,5.9610348E1,-2.9499906E-1,7.8563525E2,2.3256788E0,5.0861032E2,1.258725E2,6.703686E3,-2.4503738E-1,2.1482552E2,1.7062891E3,5.6468266E1,3.783858E2,8.582783E2,7.303184E1,6.895172E1,3.1002146E1,2.925639E2,9.869629E1,3.593031E2,1.0569787E2,3.2172882E2,1.27826416E2,4.810179E1,2.1228495E1,1.3726012E1,3.4830524E1,2.8767314E-2,2.343465E1,2.0588905E1,6.660255E1,1.0844194E2,3.104995E1,3.5279428E2,1.6351299E2,1.0828184E3,5.314906E2,1.8097643E0,-1.781545E-1,2.4169474E1,8.777357E0,3.7780132E1,4.4844723E0,2.1217241E1,3.4767807E0,2.6413374E1,1.0042073E2,1.1458044E0,9.160683E0,8.015755E0,3.460513E1,2.5618794E0,5.035703E-1,8.687167E0,6.502412E-1,-4.0256616E-2,9.6221846E-1],"categories":[],"categories_nodes":[],"categories_segments":[],"categories_sizes":[],"default_left":[1,1,1,1,1,1,1,1,1,1,1,1,1,1,1,1,1,1,1,1,1,1,1,1,1,1,1,1,1,1,1,1,1,1,1,1,1,1,1,1,1,1,1,0,1,1,1,1,1,1,1,1,1,1,1,1,1,1,1,1,1,1,1,0,0,0,0,0,0,0,0,0,0,0,0,0,0,0,0,0,0,0,0,0,0,0,0,0,0,0,0,0,0,0,0,0,0,0,0,0,0,0,0,0,0,0,0,0,0,0,0,0,0,0,0,0,0,0,0,0,0,0,0,0,0],"id":4,"left_children":[1,3,5,7,9,11,13,15,17,19,21,23,25,27,29,31,33,35,37,39,41,43,45,47,49,51,53,55,57,59,61,63,65,67,69,71,73,75,77,79,81,83,85,-1,87,89,91,93,95,97,99,101,103,105,107,109,111,113,115,117,119,121,123,-1,-1,-1,-1,-1,-1,-1,-1,-1,-1,-1,-1,-1,-1,-1,-1,-1,-1,-1,-1,-1,-1,-1,-1,-1,-1,-1,-1,-1,-1,-1,-1,-1,-1,-1,-1,-1,-1,-1,-1,-1,-1,-1,-1,-1,-1,-1,-1,-1,-1,-1,-1,-1,-1,-1,-1,-1,-1,-1,-1,-1,-1],"loss_changes":[1.8999984E7,2.2500556E7,1.3792218E6,2.4789624E7,2.2648655E6,2.4319012E6,1.9855212E5,6.997738E6,3.3606748E7,2.5361905E6,9.512096E5,9.2510375E4,8.40459E6,1.4722212E5,5.826608E4,2.5512635E6,5.446586E6,9.973905E5,7.687398E7,1.281442E6,3.2059675E5,2.1190225E5,5.863465E5,1.7651945E4,6.4755875E4,3.171072E6,4.0372202E3,1.9845547E4,5.4056956E5,7.275209E4,8.824299E3,2.065111E6,2.820738E5,5.18586E6,2.6713871E4,1.377803E6,7.285655E5,3.5956784E7,7.152049E6,1.4946168E6,1.5620565E6,3.8500016E4,3.963805E5,0E0,3.751085E5,4.6333688E4,2.1973212E5,1.737932E4,2.2008145E4,4.095153E4,1.0801294E5,4.1620275E5,9.09699E5,7.353638E1,2.1686348E3,2.3843168E4,2.1256422E4,3.5936525E5,4.8413887E3,2.3300812E5,7.9033594E2,1.3455738E4,1.9968661E2,0E0,0E0,0E0,0E0,0E0,0E0,0E0,0E0,0E0,0E0,0E0,0E0,0E0,0E0,0E0,0E0,0E0,0E0,0E0,0E0,0E0,0E0,0E0,0E0,0E0,0E0,0E0,0E0,0E0,0E0,0E0,0E0,0E0,0E0,0E0,0E0,0E0,0E0,0E0,0E0,0E0,0E0,0E0,0E0,0E0,0E0,0E0,0E0,0E0,0E0,0E0,0E0,0E0,0E0,0E0,0E0,0E0,0E0,0E0,0E0,0E0,0E0],"parents":[2147483647,0,0,1,1,2,2,3,3,4,4,5,5,6,6,7,7,8,8,9,9,10,10,11,11,12,12,13,13,14,14,15,15,16,16,17,17,18,18,19,19,20,20,21,21,22,22,23,23,24,24,25,25,26,26,27,27,28,28,29,29,30,30,31,31,32,32,33,33,34,34,35,35,36,36,37,37,38,38,39,39,40,40,41,41,42,42,44,44,45,45,46,46,47,47,48,48,49,49,50,50,51,51,52,52,53,53,54,54,55,55,56,56,57,57,58,58,59,59,60,60,61,61,62,62],"right_children":[2,4,6,8,10,12,14,16,18,20,22,24,26,28,30,32,34,36,38,40,42,44,46,48,50,52,54,56,58,60,62,64,66,68,70,72,74,76,78,80,82,84,86,-1,88,90,92,94,96,98,100,102,104,106,108,110,112,114,116,118,120,122,124,-1,-1,-1,-1,-1,-1,-1,-1,-1,-1,-1,-1,-1,-1,-1,-1,-1,-1,-1,-1,-1,-1,-1,-1,-1,-1,-1,-1,-1,-1,-1,-1,-1,-1,-1,-1,-1,-1,-1,-1,-1,-1,-1,-1,-1,-1,-1,-1,-1,-1,-1,-1,-1,-1,-1,-1,-1,-1,-1,-1,-1,-1],"split_conditions":[2.0205E3,3.5E0,1.5E0,1.45E1,5.5E0,1.75E1,4.5E0,1.65E1,2.05E1,5.55E1,6.5E0,1.95E1,1.85E1,1.65E1,1.35E1,4.5E0,2.0195E3,5E-1,2.25E1,1.45E1,1.55E1,7.5E0,7E0,6E0,2.965E2,1.95E1,2.05E1,1.55E1,1.85E1,1.85E1,3.25E1,1.075E2,1.45E1,1.395E2,4E1,9.95E1,3.5E0,2.5E0,2.75E1,1.35E1,4.35E1,9.5E0,8.65E1,5.231987E-1,1.15E1,3.5E0,9.5E0,1.55E1,1.65E1,1.65E1,3.245E2,6.5E0,4.05E1,3.95E1,4E0,1.5E0,6E0,1.75E1,2.05E1,1.75E1,2.75E1,1.55E1,1.75E1,4.398726E0,1.3610779E0,4.4604146E-1,1.3740896E0,5.5045652E0,2.6656396E0,5.961035E-1,-2.9499906E-3,7.8563523E0,2.3256788E-2,5.086103E0,1.2587249E0,6.703686E1,-2.4503737E-3,2.148255E0,1.7062891E1,5.6468266E-1,3.783858E0,8.582783E0,7.3031837E-1,6.895172E-1,3.1002146E-1,2.925639E0,9.8696285E-1,3.593031E0,1.0569787E0,3.217288E0,1.2782642E0,4.8101792E-1,2.1228494E-1,1.3726012E-1,3.4830523E-1,2.8767315E-4,2.343465E-1,2.0588905E-1,6.6602546E-1,1.0844194E0,3.104995E-1,3.5279427E0,1.6351298E0,1.0828183E1,5.314906E0,1.8097643E-2,-1.781545E-3,2.4169473E-1,8.777357E-2,3.7780133E-1,4.484472E-2,2.121724E-1,3.4767807E-2,2.6413372E-1,1.0042073E0,1.1458044E-2,9.1606826E-2,8.015755E-2,3.4605128E-1,2.5618793E-2,5.035703E-3,8.687167E-2,6.502412E-3,-4.0256616E-4,9.622185E-3],"split_indices":[5,8,8,0,8,0,8,6,6,3,3,6,0,0,8,6,5,8,6,0,6,8,0,0,3,6,0,6,0,0,7,3,6,3,3,3,6,8,6,6,3,0,3,0,8,2,8,6,0,0,3,6,3,7,6,6,0,0,0,0,7,6,0,0,0,0,0,0,0,0,0,0,0,0,0,0,0,0,0,0,0,0,0,0,0,0,0,0,0,0,0,0,0,0,0,0,0,0,0,0,0,0,0,0,0,0,0,0,0,0,0,0,0,0,0,0,0,0,0,0,0,0,0,0,0],"split_type":[0,0,0,0,0,0,0,0,0,0,0,0,0,0,0,0,0,0,0,0,0,0,0,0,0,0,0,0,0,0,0,0,0,0,0,0,0,0,0,0,0,0,0,0,0,0,0,0,0,0,0,0,0,0,0,0,0,0,0,0,0,0,0,0,0,0,0,0,0,0,0,0,0,0,0,0,0,0,0,0,0,0,0,0,0,0,0,0,0,0,0,0,0,0,0,0,0,0,0,0,0,0,0,0,0,0,0,0,0,0,0,0,0,0,0,0,0,0,0,0,0,0,0,0,0],"sum_hessian":[9.388E3,2.449E3,6.939E3,7.55E2,1.694E3,1.007E3,5.932E3,6.99E2,5.6E1,3.19E2,1.375E3,7.43E2,2.64E2,1.307E3,4.625E3,3.56E2,3.43E2,3.8E1,1.8E1,6.9E1,2.5E2,3.3E1,1.342E3,4.6E2,2.83E2,8.8E1,1.76E2,7.36E2,5.71E2,2.946E3,1.679E3,9.8E1,2.58E2,2.92E2,5.1E1,1.1E1,2.7E1,4E0,1.4E1,5.8E1,1.1E1,1.2E2,1.3E2,8E0,2.5E1,1E1,1.332E3,2.42E2,2.18E2,2.04E2,7.9E1,5.6E1,3.2E1,8.9E1,8.7E1,3.62E2,3.74E2,2.65E2,3.06E2,2.198E3,7.48E2,8.36E2,8.43E2,3.5E1,6.3E1,2.2E2,3.8E1,9.9E1,1.93E2,8E0,4.3E1,8E0,3E0,6E0,2.1E1,3E0,1E0,1E1,4E0,2.7E1,3.1E1,7E0,4E0,4.3E1,7.7E1,1.1E1,1.19E2,1.3E1,1.2E1,6E0,4E0,4.73E2,8.59E2,1.93E2,4.9E1,1.66E2,5.2E1,1.83E2,2.1E1,2.8E1,5.1E1,1.9E1,3.7E1,4E0,2.8E1,6.3E1,2.6E1,1E1,7.7E1,2.2E1,3.4E2,2.85E2,8.9E1,1.23E2,1.42E2,1.73E2,1.33E2,1.795E3,4.03E2,3.56E2,3.92E2,4.44E2,3.92E2,5.24E2,3.19E2],"tree_param":{"num_deleted":"0","num_feature":"9","num_nodes":"125","size_leaf_vector":"0"}},{"base_weights":[4.2540802E1,1.17531685E2,1.6060946E1,2.596545E2,5.407305E1,4.993935E1,1.0302393E1,2.0798749E2,8.8960626E2,1.291516E2,3.6573627E1,2.0847563E1,1.3142747E2,2.1074265E1,7.254422E0,1.10287766E2,3.0877475E2,3.407594E2,1.9693652E3,2.9607565E2,8.208452E1,2.0034163E2,3.2400368E1,1.2137573E1,3.491255E1,3.7951727E2,5.9392285E0,1.1793849E1,3.299488E1,9.906626E0,2.5976968E0,2.4552132E2,5.8170357E1,3.6074963E2,9.978292E0,5.847583E2,2.2401848E2,5.3226294E3,7.2031946E2,2.2977815E2,5.973654E2,4.7443443E1,1.189101E2,5.185481E1,2.4403548E2,2.6061972E2,3.0492783E1,4.0471275E1,1.0760826E1,4.9291454E1,1.8902485E1,2.3055873E2,6.253087E2,1.2213434E0,1.0696847E1,1.0983993E1,4.544756E1,6.5640366E1,4.601744E0,1.2775546E1,1.4704937E0,4.874808E0,3.3639413E-1,4.355961E2,1.3476797E2,4.4160126E1,1.3607011E2,5.45007E2,2.6391205E2,5.908048E1,-2.921161E-1,8.6144035E1,8.232974E2,5.0425082E2,1.2467099E2,6.6534087E3,-2.4381219E-1,2.1287256E2,1.6926387E3,5.5923748E1,3.7472018E2,8.5076843E2,7.2447586E1,7.63056E1,3.1453876E1,2.8988208E2,9.917761E1,3.559667E2,1.0472219E2,3.1897113E2,1.2680381E2,4.7621788E1,2.1016457E1,5.319393E1,-2.0101707E-1,1.6250072E1,4.6452737E0,4.334804E1,1.6366531E2,2.9984782E0,7.04968E1,3.4944272E2,1.6192088E2,1.0741558E3,5.2635895E2,-5.0528597E-2,1.8581215E0,-6.6260093E-1,1.2854886E1,3.7418755E1,1.0098465E1,6.2501724E1,3.7646387E0,2.6151371E1,9.9423546E1,1.1344122E0,9.069759E0,7.9356422E0,3.4259933E1,2.5363324E0,4.9854743E-1,8.600491E0,6.437554E-1,-3.9854825E-2,9.5262635E-1],"categories":[],"categories_nodes":[],"categories_segments":[],"categories_sizes":[],"default_left":[1,1,1,1,1,1,1,1,1,1,1,1,1,1,1,1,1,1,1,1,1,1,1,1,1,1,1,1,1,1,1,1,1,1,1,1,1,1,1,1,1,1,1,0,1,1,1,1,1,1,1,1,1,1,1,1,1,1,1,1,1,1,1,0,0,0,0,0,0,0,0,0,0,0,0,0,0,0,0,0,0,0,0,0,0,0,0,0,0,0,0,0,0,0,0,0,0,0,0,0,0,0,0,0,0,0,0,0,0,0,0,0,0,0,0,0,0,0,0,0,0,0,0,0,0],"id":5,"left_children":[1,3,5,7,9,11,13,15,17,19,21,23,25,27,29,31,33,35,37,39,41,43,45,47,49,51,53,55,57,59,61,63,65,67,69,71,73,75,77,79,81,83,85,-1,87,89,91,93,95,97,99,101,103,105,107,109,111,113,115,117,119,121,123,-1,-1,-1,-1,-1,-1,-1,-1,-1,-1,-1,-1,-1,-1,-1,-1,-1,-1,-1,-1,-1,-1,-1,-1,-1,-1,-1,-1,-1,-1,-1,-1,-1,-1,-1,-1,-1,-1,-1,-1,-1,-1,-1,-1,-1,-1,-1,-1,-1,-1,-1,-1,-1,-1,-1,-1,-1,-1,-1,-1,-1,-1],"loss_changes":[1.8642296E7,2.2082308E7,1.3534142E6,2.4421056E7,2.2222205E6,2.3868602E6,1.9464144E5,6.858766E6,3.3108384E7,2.489818E6,9.339309E5,9.072066E4,8.2478195E6,1.4431269E5,5.710808E4,2.501861E6,5.33869E6,9.79905E5,7.574525E7,1.2609715E6,3.1455375E5,2.0793612E5,5.767256E5,1.7547336E4,6.4447125E4,3.114363E6,3.959859E3,1.9587516E4,5.2988906E5,7.130622E4,8.649078E3,2.0253855E6,2.76662E5,5.084176E6,2.6240832E4,1.3563458E6,7.166651E5,3.5419456E7,7.0406885E6,1.4657745E6,1.534553E6,5.805553E4,3.7946812E5,0E0,3.6815362E5,4.5445062E4,2.1537175E5,1.0877348E4,1.4728781E4,9.4191375E4,1.1138429E5,4.085345E5,9.00249E5,7.2984924E1,2.1657617E3,1.6499812E4,1.1849445E4,3.5226088E5,4.7457827E3,2.2838534E5,7.7465295E2,1.3188561E4,1.9572504E2,0E0,0E0,0E0,0E0,0E0,0E0,0E0,0E0,0E0,0E0,0E0,0E0,0E0,0E0,0E0,0E0,0E0,0E0,0E0,0E0,0E0,0E0,0E0,0E0,0E0,0E0,0E0,0E0,0E0,0E0,0E0,0E0,0E0,0E0,0E0,0E0,0E0,0E0,0E0,0E0,0E0,0E0,0E0,0E0,0E0,0E0,0E0,0E0,0E0,0E0,0E0,0E0,0E0,0E0,0E0,0E0,0E0,0E0,0E0,0E0,0E0,0E0],"parents":[2147483647,0,0,1,1,2,2,3,3,4,4,5,5,6,6,7,7,8,8,9,9,10,10,11,11,12,12,13,13,14,14,15,15,16,16,17,17,18,18,19,19,20,20,21,21,22,22,23,23,24,24,25,25,26,26,27,27,28,28,29,29,30,30,31,31,32,32,33,33,34,34,35,35,36,36,37,37,38,38,39,39,40,40,41,41,42,42,44,44,45,45,46,46,47,47,48,48,49,49,50,50,51,51,52,52,53,53,54,54,55,55,56,56,57,57,58,58,59,59,60,60,61,61,62,62],"right_children":[2,4,6,8,10,12,14,16,18,20,22,24,26,28,30,32,34,36,38,40,42,44,46,48,50,52,54,56,58,60,62,64,66,68,70,72,74,76,78,80,82,84,86,-1,88,90,92,94,96,98,100,102,104,106,108,110,112,114,116,118,120,122,124,-1,-1,-1,-1,-1,-1,-1,-1,-1,-1,-1,-1,-1,-1,-1,-1,-1,-1,-1,-1,-1,-1,-1,-1,-1,-1,-1,-1,-1,-1,-1,-1,-1,-1,-1,-1,-1,-1,-1,-1,-1,-1,-1,-1,-1,-1,-1,-1,-1,-1,-1,-1,-1,-1,-1,-1,-1,-1,-1,-1,-1,-1],"split_conditions":[2.0205E3,3.5E0,1.5E0,1.45E1,5.5E0,1.75E1,4.5E0,1.65E1,2.05E1,5.55E1,6.5E0,1.95E1,1.85E1,1.65E1,1.35E1,4.5E0,2.0195E3,5E-1,2.25E1,1.45E1,1.65E1,7.5E0,7E0,1.5E0,6E0,1.95E1,2.05E1,3.05E1,1.85E1,1.85E1,3.25E1,1.075E2,1.45E1,1.395E2,4E1,5.4E1,3.5E0,2.5E0,2.75E1,1.35E1,4.35E1,9.5E0,8.65E1,5.185481E-1,1.15E1,3.5E0,9.5E0,2.35E1,6E0,3.05E1,1.65E1,6.5E0,4.05E1,1.035E2,4.75E1,1.5E0,6E0,1.75E1,2.05E1,1.75E1,2.75E1,1.55E1,1.75E1,4.355961E0,1.3476797E0,4.4160125E-1,1.3607011E0,5.45007E0,2.6391203E0,5.9080476E-1,-2.921161E-3,8.6144036E-1,8.232974E0,5.042508E0,1.2467098E0,6.653409E1,-2.438122E-3,2.1287255E0,1.6926386E1,5.592375E-1,3.7472017E0,8.507684E0,7.2447586E-1,7.6305604E-1,3.1453875E-1,2.8988206E0,9.917761E-1,3.5596669E0,1.0472219E0,3.1897113E0,1.268038E0,4.7621787E-1,2.1016456E-1,5.319393E-1,-2.0101706E-3,1.6250072E-1,4.6452735E-2,4.334804E-1,1.6366531E0,2.9984782E-2,7.0496804E-1,3.4944272E0,1.6192088E0,1.0741557E1,5.2635894E0,-5.05286E-4,1.8581215E-2,-6.626009E-3,1.2854886E-1,3.7418753E-1,1.0098465E-1,6.250172E-1,3.7646387E-2,2.615137E-1,9.9423546E-1,1.1344122E-2,9.0697594E-2,7.935642E-2,3.4259933E-1,2.5363322E-2,4.985474E-3,8.6004905E-2,6.4375536E-3,-3.9854823E-4,9.526263E-3],"split_indices":[5,8,8,0,8,0,8,6,6,3,3,6,0,0,8,6,5,8,6,0,6,8,0,6,0,6,0,6,0,0,7,3,6,3,3,3,6,8,6,6,3,0,3,0,8,2,8,7,0,6,0,6,3,3,3,6,0,0,0,0,7,6,0,0,0,0,0,0,0,0,0,0,0,0,0,0,0,0,0,0,0,0,0,0,0,0,0,0,0,0,0,0,0,0,0,0,0,0,0,0,0,0,0,0,0,0,0,0,0,0,0,0,0,0,0,0,0,0,0,0,0,0,0,0,0],"split_type":[0,0,0,0,0,0,0,0,0,0,0,0,0,0,0,0,0,0,0,0,0,0,0,0,0,0,0,0,0,0,0,0,0,0,0,0,0,0,0,0,0,0,0,0,0,0,0,0,0,0,0,0,0,0,0,0,0,0,0,0,0,0,0,0,0,0,0,0,0,0,0,0,0,0,0,0,0,0,0,0,0,0,0,0,0,0,0,0,0,0,0,0,0,0,0,0,0,0,0,0,0,0,0,0,0,0,0,0,0,0,0,0,0,0,0,0,0,0,0,0,0,0,0,0,0],"sum_hessian":[9.388E3,2.449E3,6.939E3,7.55E2,1.694E3,1.007E3,5.932E3,6.99E2,5.6E1,3.19E2,1.375E3,7.43E2,2.64E2,1.307E3,4.625E3,3.56E2,3.43E2,3.8E1,1.8E1,6.9E1,2.5E2,3.3E1,1.342E3,4.6E2,2.83E2,8.8E1,1.76E2,7.36E2,5.71E2,2.946E3,1.679E3,9.8E1,2.58E2,2.92E2,5.1E1,1.1E1,2.7E1,4E0,1.4E1,5.8E1,1.1E1,1.3E2,1.2E2,8E0,2.5E1,1E1,1.332E3,2E1,4.4E2,1.48E2,1.35E2,5.6E1,3.2E1,8.9E1,8.7E1,7.2E2,1.6E1,2.65E2,3.06E2,2.198E3,7.48E2,8.36E2,8.43E2,3.5E1,6.3E1,2.2E2,3.8E1,9.9E1,1.93E2,8E0,4.3E1,4E0,7E0,6E0,2.1E1,3E0,1E0,1E1,4E0,2.7E1,3.1E1,7E0,4E0,4.5E1,8.5E1,1.1E1,1.09E2,1.3E1,1.2E1,6E0,4E0,4.73E2,8.59E2,1.5E1,5E0,2.31E2,2.09E2,1.42E2,6E0,1.04E2,3.1E1,1.9E1,3.7E1,4E0,2.8E1,3E1,5.9E1,1.4E1,7.3E1,2.2E1,6.98E2,1.1E1,5E0,1.23E2,1.42E2,1.73E2,1.33E2,1.795E3,4.03E2,3.56E2,3.92E2,4.44E2,3.92E2,5.24E2,3.19E2],"tree_param":{"num_deleted":"0","num_feature":"9","num_nodes":"125","size_leaf_vector":"0"}},{"base_weights":[4.2133904E1,1.1641593E2,1.5904349E1,2.5721292E2,5.3549297E1,4.9464565E1,1.01998825E1,2.0593074E2,8.824816E2,1.2791791E2,3.6215355E1,2.064385E1,1.3019342E2,2.086543E1,7.181998E0,1.0920591E2,3.0571222E2,3.3774628E2,1.9541761E3,2.9330832E2,8.128346E1,1.9848897E2,3.2080196E1,1.20178E1,3.4573303E1,3.7595938E2,5.880627E0,1.1677455E1,3.2667305E1,9.807713E0,2.5717804E0,2.431237E2,5.759561E1,3.5716974E2,9.889815E0,4.1194443E2,-1.2646557E0,5.2827095E3,7.143866E2,7.764815E1,3.780194E2,4.4144554E1,1.1496685E2,2.5702444E2,8.416057E1,2.5841876E2,3.018837E1,4.0091797E1,1.0653692E1,4.8812435E1,1.8718864E1,2.2834286E2,6.1954065E2,1.2093308E0,1.0591264E1,6.424304E0,1.6731365E1,6.498868E1,4.556059E0,1.2647983E1,1.4558293E0,4.8261704E0,3.33041E-1,4.313611E2,1.3344136E2,4.3720524E1,1.3474431E2,5.3961145E2,2.6128653E2,5.855532E1,-2.8926134E-1,7.746099E2,2.5878055E2,-6.613608E0,1.8089005E1,6.6035083E3,-2.4259312E-1,2.1093736E2,1.6790977E3,3.5128052E0,1.7610497E2,8.051683E2,3.0147256E2,6.753216E1,3.0385593E1,2.8722482E2,9.6783E1,3.2742783E2,1.1894977E2,9.8679905E0,1.16083046E2,3.162371E2,1.2578938E2,4.7146572E1,2.0806536E1,5.269524E1,-1.9934191E-1,1.6088274E1,4.599042E0,4.291759E1,1.6226247E2,2.9687788E0,6.9813866E1,3.4612302E2,1.6034428E2,1.0655625E3,5.2127686E2,1.7820088E0,-1.9291817E-1,2.3857466E1,8.584604E0,3.7060837E1,4.3390703E0,2.0885023E1,3.3460555E0,2.5891966E1,9.8436264E1,1.1231333E0,8.979738E0,7.85633E0,3.3918182E1,2.51104E0,4.9357465E-1,8.514679E0,6.373342E-1,-3.945703E-2,9.431299E-1],"categories":[],"categories_nodes":[],"categories_segments":[],"categories_sizes":[],"default_left":[1,1,1,1,1,1,1,1,1,1,1,1,1,1,1,1,1,1,1,1,1,1,1,1,1,1,1,1,1,1,1,1,1,1,1,1,1,1,1,1,1,1,1,1,1,1,1,1,1,1,1,1,1,1,1,1,1,1,1,1,1,1,1,0,0,0,0,0,0,0,0,0,0,0,0,0,0,0,0,0,0,0,0,0,0,0,0,0,0,0,0,0,0,0,0,0,0,0,0,0,0,0,0,0,0,0,0,0,0,0,0,0,0,0,0,0,0,0,0,0,0,0,0,0,0,0,0],"id":6,"left_children":[1,3,5,7,9,11,13,15,17,19,21,23,25,27,29,31,33,35,37,39,41,43,45,47,49,51,53,55,57,59,61,63,65,67,69,71,73,75,77,79,81,83,85,87,89,91,93,95,97,99,101,103,105,107,109,111,113,115,117,119,121,123,125,-1,-1,-1,-1,-1,-1,-1,-1,-1,-1,-1,-1,-1,-1,-1,-1,-1,-1,-1,-1,-1,-1,-1,-1,-1,-1,-1,-1,-1,-1,-1,-1,-1,-1,-1,-1,-1,-1,-1,-1,-1,-1,-1,-1,-1,-1,-1,-1,-1,-1,-1,-1,-1,-1,-1,-1,-1,-1,-1,-1,-1,-1,-1,-1],"loss_changes":[1.8291528E7,2.1672238E7,1.3281106E6,2.4059512E7,2.180394E6,2.342589E6,1.90818E5,6.722556E6,3.2616016E7,2.444284E6,9.1696575E5,8.898069E4,8.0940295E6,1.4145194E5,5.597308E4,2.453416E6,5.232936E6,9.81527E5,7.463303E7,1.2494645E6,3.0891688E5,2.0590575E5,5.672624E5,1.722732E4,6.320025E4,3.058673E6,3.882038E3,1.9459094E4,5.194198E5,6.988916E4,8.477337E3,1.9864245E6,2.7135406E5,4.984484E6,2.577617E4,1.577058E6,9.47808E2,3.4890176E7,6.9310615E6,1.526631E5,1.392109E6,3.68845E4,3.8253462E5,1.7491288E5,2.9685336E4,4.4573188E4,2.1109812E5,1.0674449E4,1.4436891E4,9.268291E4,1.0923883E5,4.0100725E5,8.90863E5,7.261711E1,2.1378193E3,2.30292E4,2.0779375E4,3.45297E5,4.6520664E3,2.2385425E5,7.592811E2,1.2926689E4,1.9184204E2,0E0,0E0,0E0,0E0,0E0,0E0,0E0,0E0,0E0,0E0,0E0,0E0,0E0,0E0,0E0,0E0,0E0,0E0,0E0,0E0,0E0,0E0,0E0,0E0,0E0,0E0,0E0,0E0,0E0,0E0,0E0,0E0,0E0,0E0,0E0,0E0,0E0,0E0,0E0,0E0,0E0,0E0,0E0,0E0,0E0,0E0,0E0,0E0,0E0,0E0,0E0,0E0,0E0,0E0,0E0,0E0,0E0,0E0,0E0,0E0,0E0,0E0,0E0,0E0],"parents":[2147483647,0,0,1,1,2,2,3,3,4,4,5,5,6,6,7,7,8,8,9,9,10,10,11,11,12,12,13,13,14,14,15,15,16,16,17,17,18,18,19,19,20,20,21,21,22,22,23,23,24,24,25,25,26,26,27,27,28,28,29,29,30,30,31,31,32,32,33,33,34,34,35,35,36,36,37,37,38,38,39,39,40,40,41,41,42,42,43,43,44,44,45,45,46,46,47,47,48,48,49,49,50,50,51,51,52,52,53,53,54,54,55,55,56,56,57,57,58,58,59,59,60,60,61,61,62,62],"right_children":[2,4,6,8,10,12,14,16,18,20,22,24,26,28,30,32,34,36,38,40,42,44,46,48,50,52,54,56,58,60,62,64,66,68,70,72,74,76,78,80,82,84,86,88,90,92,94,96,98,100,102,104,106,108,110,112,114,116,118,120,122,124,126,-1,-1,-1,-1,-1,-1,-1,-1,-1,-1,-1,-1,-1,-1,-1,-1,-1,-1,-1,-1,-1,-1,-1,-1,-1,-1,-1,-1,-1,-1,-1,-1,-1,-1,-1,-1,-1,-1,-1,-1,-1,-1,-1,-1,-1,-1,-1,-1,-1,-1,-1,-1,-1,-1,-1,-1,-1,-1,-1,-1,-1,-1,-1,-1],"split_conditions":[2.0205E3,3.5E0,1.5E0,1.45E1,5.5E0,1.75E1,4.5E0,1.65E1,2.05E1,5.55E1,6.5E0,1.95E1,1.85E1,1.65E1,1.35E1,4.5E0,2.0195E3,9.95E1,2.25E1,2.05E1,1.55E1,1.3E1,7E0,1.5E0,6E0,1.95E1,2.05E1,1.55E1,1.85E1,1.85E1,3.25E1,1.075E2,1.45E1,1.395E2,4E1,5E-1,1.17E2,2.5E0,2.75E1,1.35E1,2.65E1,9.5E0,8.65E1,1.15E1,1.45E1,3.5E0,9.5E0,2.35E1,6E0,3.05E1,1.65E1,6.5E0,4.05E1,3.95E1,4E0,1.5E0,6E0,1.75E1,2.05E1,1.75E1,2.75E1,1.55E1,1.75E1,4.313611E0,1.3344135E0,4.3720523E-1,1.3474431E0,5.3961143E0,2.6128652E0,5.8555317E-1,-2.8926134E-3,7.746099E0,2.5878055E0,-6.613608E-2,1.8089004E-1,6.603508E1,-2.4259312E-3,2.1093736E0,1.6790976E1,3.5128053E-2,1.7610496E0,8.051682E0,3.0147257E0,6.753216E-1,3.0385593E-1,2.8722482E0,9.6782994E-1,3.2742782E0,1.1894977E0,9.86799E-2,1.1608304E0,3.162371E0,1.2578938E0,4.714657E-1,2.0806535E-1,5.269524E-1,-1.9934191E-3,1.6088274E-1,4.599042E-2,4.291759E-1,1.6226246E0,2.9687788E-2,6.9813865E-1,3.46123E0,1.6034428E0,1.0655624E1,5.2127686E0,1.7820088E-2,-1.9291816E-3,2.3857465E-1,8.5846044E-2,3.7060836E-1,4.3390702E-2,2.0885022E-1,3.3460554E-2,2.5891966E-1,9.843626E-1,1.1231333E-2,8.979738E-2,7.8563295E-2,3.391818E-1,2.51104E-2,4.9357465E-3,8.5146785E-2,6.373342E-3,-3.945703E-4,9.431299E-3],"split_indices":[5,8,8,0,8,0,8,6,6,3,3,6,0,0,8,6,5,3,6,3,6,0,0,6,0,6,0,6,0,0,7,3,6,3,3,8,3,8,6,3,3,0,3,8,0,2,8,7,0,6,0,6,3,7,6,6,0,0,0,0,7,6,0,0,0,0,0,0,0,0,0,0,0,0,0,0,0,0,0,0,0,0,0,0,0,0,0,0,0,0,0,0,0,0,0,0,0,0,0,0,0,0,0,0,0,0,0,0,0,0,0,0,0,0,0,0,0,0,0,0,0,0,0,0,0,0,0],"split_type":[0,0,0,0,0,0,0,0,0,0,0,0,0,0,0,0,0,0,0,0,0,0,0,0,0,0,0,0,0,0,0,0,0,0,0,0,0,0,0,0,0,0,0,0,0,0,0,0,0,0,0,0,0,0,0,0,0,0,0,0,0,0,0,0,0,0,0,0,0,0,0,0,0,0,0,0,0,0,0,0,0,0,0,0,0,0,0,0,0,0,0,0,0,0,0,0,0,0,0,0,0,0,0,0,0,0,0,0,0,0,0,0,0,0,0,0,0,0,0,0,0,0,0,0,0,0,0],"sum_hessian":[9.388E3,2.449E3,6.939E3,7.55E2,1.694E3,1.007E3,5.932E3,6.99E2,5.6E1,3.19E2,1.375E3,7.43E2,2.64E2,1.307E3,4.625E3,3.56E2,3.43E2,3.8E1,1.8E1,6.9E1,2.5E2,3.3E1,1.342E3,4.6E2,2.83E2,8.8E1,1.76E2,7.36E2,5.71E2,2.946E3,1.679E3,9.8E1,2.58E2,2.92E2,5.1E1,3.1E1,7E0,4E0,1.4E1,2E1,4.9E1,1.2E2,1.3E2,2.1E1,1.2E1,1E1,1.332E3,2E1,4.4E2,1.48E2,1.35E2,5.6E1,3.2E1,8.9E1,8.7E1,3.62E2,3.74E2,2.65E2,3.06E2,2.198E3,7.48E2,8.36E2,8.43E2,3.5E1,6.3E1,2.2E2,3.8E1,9.9E1,1.93E2,8E0,4.3E1,8E0,2.3E1,6E0,1E0,3E0,1E0,1E1,4E0,1.2E1,8E0,6E0,4.3E1,4.3E1,7.7E1,1.1E1,1.19E2,1.3E1,8E0,4E0,8E0,6E0,4E0,4.73E2,8.59E2,1.5E1,5E0,2.31E2,2.09E2,1.42E2,6E0,1.04E2,3.1E1,1.9E1,3.7E1,4E0,2.8E1,6.3E1,2.6E1,1E1,7.7E1,2.2E1,3.4E2,2.85E2,8.9E1,1.23E2,1.42E2,1.73E2,1.33E2,1.795E3,4.03E2,3.56E2,3.92E2,4.44E2,3.92E2,5.24E2,3.19E2],"tree_param":{"num_deleted":"0","num_feature":"9","num_nodes":"127","size_leaf_vector":"0"}},{"base_weights":[4.1730377E1,1.15308876E2,1.5749245E1,2.5478815E2,5.303062E1,4.8994507E1,1.0098313E1,2.0389432E2,8.7533014E2,1.26693985E2,3.586107E1,2.0442131E1,1.2897176E2,2.0658306E1,7.1102962E0,1.08134674E2,3.0268008E2,3.3463672E2,1.9391045E3,2.90559E2,8.048983E1,1.9667241E2,3.1763191E1,1.189921E1,3.423736E1,3.72435E2,5.823744E0,1.156157E1,3.2342983E1,9.709787E0,2.5461226E0,2.4074953E2,5.7026546E1,3.536254E2,9.802122E0,4.0814792E2,-1.2376647E0,5.243089E3,7.0850275E2,2.25003E2,5.886626E2,4.3711205E1,1.138465E2,4.9658752E1,2.3999744E2,2.5623642E2,2.9886997E1,3.9715878E1,1.0547625E1,2.4759249E1,5.8097046E1,2.2614828E2,6.138261E2,1.197414E0,1.0489038E1,1.0759774E1,4.4887085E1,6.434347E1,4.5108275E0,1.2521692E1,1.4413111E0,4.778018E0,3.2972133E-1,4.2716733E2,1.3212779E2,4.3285297E1,1.3343141E2,5.342693E2,2.5868713E2,5.803483E1,-2.8643447E-1,7.677245E2,2.5630054E2,-6.5569196E0,1.799856E1,6.553982E3,-2.4138016E-1,2.0901974E2,1.6656648E3,5.37544E1,3.678142E2,8.3958374E2,6.945622E1,6.6872185E1,3.0085634E1,2.8459192E2,9.5823235E1,3.503006E2,1.02748055E2,3.135265E2,1.2478306E2,4.6676105E1,2.0598713E1,5.220122E1,-1.9768073E-1,1.5928083E1,4.5532703E0,1.9857834E1,6.462747E1,1.06323875E2,3.0084066E1,3.4283484E2,1.5878304E2,6.555308E2,-2.1731165E1,-6.601069E-2,1.8302267E0,-7.5690347E-1,1.2626877E1,3.670634E1,9.890631E0,6.1737343E1,3.705383E0,2.5635136E1,9.745878E1,1.1119664E0,8.890612E0,7.77781E0,3.3579838E1,2.4859998E0,4.8865148E-1,8.429724E0,6.309771E-1,-3.9063197E-2,9.3372804E-1],"categories":[],"categories_nodes":[],"categories_segments":[],"categories_sizes":[],"default_left":[1,1,1,1,1,1,1,1,1,1,1,1,1,1,1,1,1,1,1,1,1,1,1,1,1,1,1,1,1,1,1,1,1,1,1,1,1,1,1,1,1,1,1,0,1,1,1,1,1,1,1,1,1,1,1,1,1,1,1,1,1,1,1,0,0,0,0,0,0,0,0,0,0,0,0,0,0,0,0,0,0,0,0,0,0,0,0,0,0,0,0,0,0,0,0,0,0,0,0,0,0,0,0,0,0,0,0,0,0,0,0,0,0,0,0,0,0,0,0,0,0,0,0,0,0],"id":7,"left_children":[1,3,5,7,9,11,13,15,17,19,21,23,25,27,29,31,33,35,37,39,41,43,45,47,49,51,53,55,57,59,61,63,65,67,69,71,73,75,77,79,81,83,85,-1,87,89,91,93,95,97,99,101,103,105,107,109,111,113,115,117,119,121,123,-1,-1,-1,-1,-1,-1,-1,-1,-1,-1,-1,-1,-1,-1,-1,-1,-1,-1,-1,-1,-1,-1,-1,-1,-1,-1,-1,-1,-1,-1,-1,-1,-1,-1,-1,-1,-1,-1,-1,-1,-1,-1,-1,-1,-1,-1,-1,-1,-1,-1,-1,-1,-1,-1,-1,-1,-1,-1,-1,-1,-1,-1],"loss_changes":[1.7946692E7,2.1268478E7,1.3033E6,2.369734E7,2.139237E6,2.2991728E6,1.8705969E5,6.589054E6,3.2136124E7,2.399411E6,9.005161E5,8.7274125E4,7.9430645E6,1.386565E5,5.486061E4,2.4059088E6,5.129276E6,9.63436E5,7.353715E7,1.2355225E6,3.029535E5,2.046405E5,5.57954E5,1.6913133E4,6.2786656E4,3.00398E6,3.807665E3,1.9209867E4,5.0915744E5,6.850019E4,8.309008E3,1.948213E6,2.66148E5,4.88674E6,2.5319738E4,1.550456E6,9.365941E2,3.4368816E7,6.823137E6,1.4231452E6,1.505044E6,3.617347E4,3.7586762E5,0E0,3.5762238E5,4.3717875E4,2.0690925E5,1.0475344E4,1.415077E4,3.877583E4,1.0487956E5,3.9361875E5,8.88935E5,7.207681E1,2.125255E3,1.5896422E4,1.1567918E4,3.3847062E5,4.5602017E3,2.1941312E5,7.442145E2,1.267002E4,1.8803607E2,0E0,0E0,0E0,0E0,0E0,0E0,0E0,0E0,0E0,0E0,0E0,0E0,0E0,0E0,0E0,0E0,0E0,0E0,0E0,0E0,0E0,0E0,0E0,0E0,0E0,0E0,0E0,0E0,0E0,0E0,0E0,0E0,0E0,0E0,0E0,0E0,0E0,0E0,0E0,0E0,0E0,0E0,0E0,0E0,0E0,0E0,0E0,0E0,0E0,0E0,0E0,0E0,0E0,0E0,0E0,0E0,0E0,0E0,0E0,0E0,0E0,0E0],"parents":[2147483647,0,0,1,1,2,2,3,3,4,4,5,5,6,6,7,7,8,8,9,9,10,10,11,11,12,12,13,13,14,14,15,15,16,16,17,17,18,18,19,19,20,20,21,21,22,22,23,23,24,24,25,25,26,26,27,27,28,28,29,29,30,30,31,31,32,32,33,33,34,34,35,35,36,36,37,37,38,38,39,39,40,40,41,41,42,42,44,44,45,45,46,46,47,47,48,48,49,49,50,50,51,51,52,52,53,53,54,54,55,55,56,56,57,57,58,58,59,59,60,60,61,61,62,62],"right_children":[2,4,6,8,10,12,14,16,18,20,22,24,26,28,30,32,34,36,38,40,42,44,46,48,50,52,54,56,58,60,62,64,66,68,70,72,74,76,78,80,82,84,86,-1,88,90,92,94,96,98,100,102,104,106,108,110,112,114,116,118,120,122,124,-1,-1,-1,-1,-1,-1,-1,-1,-1,-1,-1,-1,-1,-1,-1,-1,-1,-1,-1,-1,-1,-1,-1,-1,-1,-1,-1,-1,-1,-1,-1,-1,-1,-1,-1,-1,-1,-1,-1,-1,-1,-1,-1,-1,-1,-1,-1,-1,-1,-1,-1,-1,-1,-1,-1,-1,-1,-1,-1,-1,-1,-1],"split_conditions":[2.0205E3,3.5E0,1.5E0,1.45E1,5.5E0,1.75E1,4.5E0,1.65E1,2.05E1,5.55E1,6.5E0,1.95E1,1.85E1,1.65E1,1.35E1,4.5E0,2.0195E3,9.95E1,2.25E1,1.45E1,1.55E1,7.5E0,7E0,1.5E0,2.965E2,1.95E1,2.05E1,3.05E1,1.85E1,1.85E1,3.25E1,1.075E2,1.45E1,1.395E2,4E1,5E-1,1.17E2,2.5E0,2.75E1,1.35E1,4.35E1,9.5E0,8.65E1,4.965875E-1,1.15E1,3.5E0,9.5E0,2.35E1,6E0,1.65E1,3.245E2,6.5E0,3.46E2,1.035E2,4.75E1,1.5E0,6E0,1.75E1,2.05E1,1.75E1,2.75E1,1.55E1,1.75E1,4.271673E0,1.3212779E0,4.3285295E-1,1.3343141E0,5.342693E0,2.5868714E0,5.8034825E-1,-2.8643447E-3,7.6772447E0,2.5630052E0,-6.556919E-2,1.799856E-1,6.553982E1,-2.4138014E-3,2.0901973E0,1.6656647E1,5.3754395E-1,3.678142E0,8.395837E0,6.945622E-1,6.6872185E-1,3.0085632E-1,2.8459191E0,9.5823234E-1,3.503006E0,1.0274805E0,3.1352649E0,1.2478305E0,4.6676105E-1,2.0598713E-1,5.220122E-1,-1.9768071E-3,1.5928084E-1,4.5532703E-2,1.9857833E-1,6.462747E-1,1.0632387E0,3.0084065E-1,3.4283483E0,1.5878303E0,6.555308E0,-2.1731165E-1,-6.601069E-4,1.8302266E-2,-7.5690346E-3,1.2626876E-1,3.670634E-1,9.890631E-2,6.173734E-1,3.705383E-2,2.5635135E-1,9.7458774E-1,1.1119664E-2,8.890612E-2,7.77781E-2,3.3579838E-1,2.4859998E-2,4.8865145E-3,8.429723E-2,6.309771E-3,-3.9063196E-4,9.33728E-3],"split_indices":[5,8,8,0,8,0,8,6,6,3,3,6,0,0,8,6,5,3,6,0,6,8,0,6,3,6,0,6,0,0,7,3,6,3,3,8,3,8,6,6,3,0,3,0,8,2,8,7,0,0,3,6,3,3,3,6,0,0,0,0,7,6,0,0,0,0,0,0,0,0,0,0,0,0,0,0,0,0,0,0,0,0,0,0,0,0,0,0,0,0,0,0,0,0,0,0,0,0,0,0,0,0,0,0,0,0,0,0,0,0,0,0,0,0,0,0,0,0,0,0,0,0,0,0,0],"split_type":[0,0,0,0,0,0,0,0,0,0,0,0,0,0,0,0,0,0,0,0,0,0,0,0,0,0,0,0,0,0,0,0,0,0,0,0,0,0,0,0,0,0,0,0,0,0,0,0,0,0,0,0,0,0,0,0,0,0,0,0,0,0,0,0,0,0,0,0,0,0,0,0,0,0,0,0,0,0,0,0,0,0,0,0,0,0,0,0,0,0,0,0,0,0,0,0,0,0,0,0,0,0,0,0,0,0,0,0,0,0,0,0,0,0,0,0,0,0,0,0,0,0,0,0,0],"sum_hessian":[9.388E3,2.449E3,6.939E3,7.55E2,1.694E3,1.007E3,5.932E3,6.99E2,5.6E1,3.19E2,1.375E3,7.43E2,2.64E2,1.307E3,4.625E3,3.56E2,3.43E2,3.8E1,1.8E1,6.9E1,2.5E2,3.3E1,1.342E3,4.6E2,2.83E2,8.8E1,1.76E2,7.36E2,5.71E2,2.946E3,1.679E3,9.8E1,2.58E2,2.92E2,5.1E1,3.1E1,7E0,4E0,1.4E1,5.8E1,1.1E1,1.2E2,1.3E2,8E0,2.5E1,1E1,1.332E3,2E1,4.4E2,2.04E2,7.9E1,5.6E1,3.2E1,8.9E1,8.7E1,7.2E2,1.6E1,2.65E2,3.06E2,2.198E3,7.48E2,8.36E2,8.43E2,3.5E1,6.3E1,2.2E2,3.8E1,9.9E1,1.93E2,8E0,4.3E1,8E0,2.3E1,6E0,1E0,3E0,1E0,1E1,4E0,2.7E1,3.1E1,7E0,4E0,4.3E1,7.7E1,1.1E1,1.19E2,1.3E1,1.2E1,6E0,4E0,4.73E2,8.59E2,1.5E1,5E0,2.31E2,2.09E2,1.83E2,2.1E1,2.8E1,5.1E1,1.9E1,3.7E1,3E1,2E0,3E1,5.9E1,1.4E1,7.3E1,2.2E1,6.98E2,1.1E1,5E0,1.23E2,1.42E2,1.73E2,1.33E2,1.795E3,4.03E2,3.56E2,3.92E2,4.44E2,3.92E2,5.24E2,3.19E2],"tree_param":{"num_deleted":"0","num_feature":"9","num_nodes":"125","size_leaf_vector":"0"}},{"base_weights":[4.1329697E1,1.1421239E2,1.5594262E1,9.403184E1,5.3861127E2,4.851887E1,9.997835E0,1.8881787E2,3.902831E1,1.308497E3,2.2392433E2,2.0241653E1,1.277254E2,2.0453596E1,7.0393105E0,9.390194E1,2.8780405E2,2.0000987E2,3.5903557E1,4.5306638E2,2.9004038E3,3.3186478E2,4.2603455E1,1.178179E1,3.3902763E1,3.688382E2,5.766277E0,1.1447475E1,3.202188E1,8.958103E0,9.749096E-1,2.0653053E2,5.1505264E1,4.9075226E2,2.1859668E2,3.5751896E1,2.6392548E2,2.2783342E2,3.414958E1,1.4713019E1,6.165293E2,7.3420684E3,1.097582E3,4.0215668E2,-3.303797E1,1.2702693E2,1.2687154E1,3.9343483E1,1.0442613E1,4.8051296E1,1.8152512E1,2.2397481E2,6.078799E2,1.1856359E0,1.0385497E1,6.2463155E0,1.6451672E1,6.3704662E1,4.4660454E0,5.447191E0,2.3397552E1,2.0788026E0,1.0334231E-1,3.595239E2,1.16423546E2,4.012319E1,1.1097656E2,1.9300186E2,6.348123E2,2.4865001E2,-4.6406567E-1,-1.2891997E0,4.6519238E1,3.8415955E2,1.0527544E2,3.108391E2,1.1228008E2,8.581903E1,2.861992E1,7.269388E1,-2.3018097E1,8.987359E2,-3.6042774E0,1.9162701E2,2.8456162E3,3.3133273E2,9.9215094E2,-7.090824E1,-2.2847981E0,1.7107585E2,-3.4132156E0,5.2026245E1,-4.034616E-1,-3.86466E-1,5.1783245E1,7.4728975E0,2.1179964E1,4.223721E1,1.599603E2,2.6282856E0,6.852412E1,3.395779E2,1.5723698E2,1.0517937E3,5.1038162E2,1.7547469E0,-2.0728023E-1,2.3550125E1,8.3958E0,3.635524E1,4.1971908E0,2.0558401E1,3.2185955E0,2.5380852E1,9.6491005E1,1.1009107E0,8.802369E0,3.1873903E0,1.0640751E1,4.2662598E1,1.3416455E1,8.70746E-1,4.072287E0,1.4506019E0,-3.772097E-1],"categories":[],"categories_nodes":[],"categories_segments":[],"categories_sizes":[],"default_left":[1,1,1,1,1,1,1,1,1,1,1,1,1,1,1,1,1,1,1,1,1,1,1,1,1,1,1,1,1,1,1,1,1,1,1,1,1,1,1,1,1,0,1,1,1,1,1,1,1,1,1,1,1,1,1,1,1,1,1,1,1,1,1,0,0,0,0,0,0,0,0,0,0,0,0,0,0,0,0,0,0,0,0,0,0,0,0,0,0,0,0,0,0,0,0,0,0,0,0,0,0,0,0,0,0,0,0,0,0,0,0,0,0,0,0,0,0,0,0,0,0,0,0,0,0],"id":8,"left_children":[1,3,5,7,9,11,13,15,17,19,21,23,25,27,29,31,33,35,37,39,41,43,45,47,49,51,53,55,57,59,61,63,65,67,69,71,73,75,77,79,81,-1,83,85,87,89,91,93,95,97,99,101,103,105,107,109,111,113,115,117,119,121,123,-1,-1,-1,-1,-1,-1,-1,-1,-1,-1,-1,-1,-1,-1,-1,-1,-1,-1,-1,-1,-1,-1,-1,-1,-1,-1,-1,-1,-1,-1,-1,-1,-1,-1,-1,-1,-1,-1,-1,-1,-1,-1,-1,-1,-1,-1,-1,-1,-1,-1,-1,-1,-1,-1,-1,-1,-1,-1,-1,-1,-1,-1],"loss_changes":[1.7608864E7,2.0932632E7,1.2782804E6,1.2192376E7,2.6599296E7,2.2550728E6,1.8338525E5,8.04359E6,7.3830525E5,4.2262436E7,1.5516095E6,8.55855E4,7.790438E6,1.3590794E5,5.382092E4,2.090397E6,5.791836E6,2.8452625E5,4.8203238E5,1.567329E6,8.00243E7,1.295772E6,7.668317E4,1.660466E4,6.2415156E4,2.945778E6,3.7328271E3,1.9079602E4,4.9909744E5,1.7801703E5,1.0706213E3,1.612436E6,2.1283419E5,4.424236E6,2.073919E6,3.6494795E3,3.4106012E5,8.978956E4,4.0982962E5,1.6987053E4,2.8033315E6,0E0,1.3707464E7,1.426268E6,1.0319668E4,4.65499E4,1.238034E4,1.0398865E4,1.390384E4,9.0190375E4,1.061692E5,3.8636625E5,8.91451E5,7.1708885E1,2.1073174E3,2.2243398E4,2.0313086E4,3.3177938E5,4.47015E3,3.3156664E4,1.3152834E5,1.1789009E3,4.0389502E2,0E0,0E0,0E0,0E0,0E0,0E0,0E0,0E0,0E0,0E0,0E0,0E0,0E0,0E0,0E0,0E0,0E0,0E0,0E0,0E0,0E0,0E0,0E0,0E0,0E0,0E0,0E0,0E0,0E0,0E0,0E0,0E0,0E0,0E0,0E0,0E0,0E0,0E0,0E0,0E0,0E0,0E0,0E0,0E0,0E0,0E0,0E0,0E0,0E0,0E0,0E0,0E0,0E0,0E0,0E0,0E0,0E0,0E0,0E0,0E0,0E0,0E0],"parents":[2147483647,0,0,1,1,2,2,3,3,4,4,5,5,6,6,7,7,8,8,9,9,10,10,11,11,12,12,13,13,14,14,15,15,16,16,17,17,18,18,19,19,20,20,21,21,22,22,23,23,24,24,25,25,26,26,27,27,28,28,29,29,30,30,31,31,32,32,33,33,34,34,35,35,36,36,37,37,38,38,39,39,40,40,42,42,43,43,44,44,45,45,46,46,47,47,48,48,49,49,50,50,51,51,52,52,53,53,54,54,55,55,56,56,57,57,58,58,59,59,60,60,61,61,62,62],"right_children":[2,4,6,8,10,12,14,16,18,20,22,24,26,28,30,32,34,36,38,40,42,44,46,48,50,52,54,56,58,60,62,64,66,68,70,72,74,76,78,80,82,-1,84,86,88,90,92,94,96,98,100,102,104,106,108,110,112,114,116,118,120,122,124,-1,-1,-1,-1,-1,-1,-1,-1,-1,-1,-1,-1,-1,-1,-1,-1,-1,-1,-1,-1,-1,-1,-1,-1,-1,-1,-1,-1,-1,-1,-1,-1,-1,-1,-1,-1,-1,-1,-1,-1,-1,-1,-1,-1,-1,-1,-1,-1,-1,-1,-1,-1,-1,-1,-1,-1,-1,-1,-1,-1,-1,-1],"split_conditions":[2.0205E3,1.45E1,1.5E0,4.5E0,1.5E0,1.75E1,4.5E0,1.65E1,6.5E0,2.05E1,6.5E0,1.95E1,1.85E1,1.65E1,1.85E1,4.5E0,1.5E0,7.5E0,7E0,4.35E1,2.25E1,8.55E1,8.5E0,1.5E0,6E0,1.95E1,2.05E1,1.55E1,1.85E1,1.75E1,2.75E1,1.075E2,1.45E1,2.75E1,2.0195E3,5.5E0,1.15E1,3.5E0,5.5E0,2.6E1,9.95E1,7.3420685E1,2.75E1,7.85E1,1.5E0,1.25E1,7.5E0,2E0,1.55E1,3.05E1,1.65E1,6.5E0,4.05E1,3.95E1,4E0,1.5E0,6E0,1.75E1,2.05E1,6E0,9.5E0,2.05E1,8.5E0,3.595239E0,1.1642355E0,4.012319E-1,1.1097656E0,1.9300185E0,6.348123E0,2.4865E0,-4.6406565E-3,-1.2891997E-2,4.6519238E-1,3.8415954E0,1.0527543E0,3.108391E0,1.1228008E0,8.581903E-1,2.861992E-1,7.269388E-1,-2.3018096E-1,8.987359E0,-3.6042772E-2,1.9162701E0,2.8456161E1,3.3133273E0,9.921509E0,-7.090824E-1,-2.284798E-2,1.7107584E0,-3.4132157E-2,5.202624E-1,-4.034616E-3,-3.86466E-3,5.1783246E-1,7.472897E-2,2.1179964E-1,4.2237207E-1,1.5996029E0,2.6282856E-2,6.8524116E-1,3.3957791E0,1.5723698E0,1.0517937E1,5.103816E0,1.754747E-2,-2.0728023E-3,2.3550124E-1,8.395799E-2,3.635524E-1,4.1971907E-2,2.05584E-1,3.2185953E-2,2.538085E-1,9.6491003E-1,1.1009106E-2,8.802369E-2,3.1873904E-2,1.0640751E-1,4.2662597E-1,1.3416456E-1,8.70746E-3,4.072287E-2,1.4506019E-2,-3.772097E-3],"split_indices":[5,0,8,8,8,0,8,6,3,6,8,6,0,0,0,6,2,8,0,3,6,3,3,6,0,6,0,6,0,0,7,3,6,3,5,8,8,2,8,3,3,0,6,3,2,8,8,0,6,6,0,6,3,7,6,6,0,0,0,0,8,0,8,0,0,0,0,0,0,0,0,0,0,0,0,0,0,0,0,0,0,0,0,0,0,0,0,0,0,0,0,0,0,0,0,0,0,0,0,0,0,0,0,0,0,0,0,0,0,0,0,0,0,0,0,0,0,0,0,0,0,0,0,0,0],"split_type":[0,0,0,0,0,0,0,0,0,0,0,0,0,0,0,0,0,0,0,0,0,0,0,0,0,0,0,0,0,0,0,0,0,0,0,0,0,0,0,0,0,0,0,0,0,0,0,0,0,0,0,0,0,0,0,0,0,0,0,0,0,0,0,0,0,0,0,0,0,0,0,0,0,0,0,0,0,0,0,0,0,0,0,0,0,0,0,0,0,0,0,0,0,0,0,0,0,0,0,0,0,0,0,0,0,0,0,0,0,0,0,0,0,0,0,0,0,0,0,0,0,0,0,0,0],"sum_hessian":[9.388E3,2.449E3,6.939E3,2.339E3,1.1E2,1.007E3,5.932E3,8.58E2,1.481E3,3.1E1,7.9E1,7.43E2,2.64E2,1.307E3,4.625E3,4.39E2,4.19E2,2.7E1,1.454E3,2.1E1,1E1,4.9E1,3E1,4.6E2,2.83E2,8.8E1,1.76E2,7.36E2,5.71E2,3.513E3,1.112E3,1.19E2,3.2E2,1.05E2,3.14E2,8E0,1.9E1,1.2E1,1.442E3,6E0,1.5E1,2E0,8E0,4.1E1,8E0,7E0,2.3E1,2E1,4.4E2,1.48E2,1.35E2,5.6E1,3.2E1,8.9E1,8.7E1,3.62E2,3.74E2,2.65E2,3.06E2,2.827E3,6.86E2,4.9E2,6.22E2,4.3E1,7.6E1,2.7E2,5E1,3.5E1,7E1,2.76E2,3.8E1,2E0,6E0,1E1,9E0,6E0,6E0,1.38E2,1.304E3,2E0,4E0,1E1,5E0,6E0,2E0,3.8E1,3E0,3E0,5E0,5E0,2E0,5E0,1.8E1,5E0,1.5E1,3.46E2,9.4E1,1.42E2,6E0,1.04E2,3.1E1,1.9E1,3.7E1,4E0,2.8E1,6.3E1,2.6E1,1E1,7.7E1,2.2E1,3.4E2,2.85E2,8.9E1,1.23E2,1.42E2,1.73E2,1.33E2,1.971E3,8.56E2,2.33E2,4.53E2,3.06E2,1.84E2,1.63E2,4.59E2],"tree_param":{"num_deleted":"0","num_feature":"9","num_nodes":"125","size_leaf_vector":"0"}},{"base_weights":[4.093588E1,1.1313381E2,1.5442236E1,9.310338E1,5.3437775E2,4.805795E1,9.898315E0,1.8694951E2,3.864526E1,1.2989508E3,2.2186879E2,2.0043987E1,1.26527115E2,2.025056E1,6.9690814E0,9.297717E1,2.849516E2,1.9820073E2,3.5548214E1,4.4896518E2,2.8808357E3,3.287962E2,4.2248158E1,1.1665709E1,3.357336E1,3.653812E2,5.710506E0,1.1333873E1,3.1703966E1,9.534086E0,2.4654884E0,2.045049E2,5.099492E1,4.8592285E2,2.164186E2,3.5444633E1,2.6153094E2,2.2588057E2,3.3808876E1,1.4636855E1,6.1092346E2,7.293121E3,1.0899808E3,3.9845023E2,-3.2788918E1,1.2596624E2,1.2581792E1,1.7310492E1,5.3490515E0,2.421538E1,5.713352E1,2.2182222E2,6.0227454E2,1.1739515E0,1.0285272E1,1.0540059E1,4.4334217E1,6.3072197E1,4.421707E0,1.2295309E1,1.4146403E0,4.672717E0,2.7364466E-1,3.5601038E2,1.1527443E2,3.9723442E1,1.0988855E2,1.9112546E2,6.285536E2,2.4617249E2,-4.5954397E-1,-1.280605E0,4.6120502E1,3.806672E2,1.04327965E2,3.081748E2,1.1131768E2,8.496701E1,2.833394E1,7.220924E1,-2.2833952E1,8.9056555E2,-3.5742412E0,1.899845E2,2.8266455E3,3.2810437E2,9.8470984E2,-7.0376434E1,-2.2657583E0,1.6965022E2,-3.390461E0,5.1592693E1,-3.9963952E-1,1.296917E1,3.3808613E1,-2.5272316E-1,2.2899E1,1.9403862E1,6.3356476E1,1.0477357E2,2.9466305E1,3.3635193E2,1.55706E2,1.0433795E3,5.0545383E2,-8.108748E-2,1.8028225E0,1.7602706E0,1.3100268E1,3.6007492E1,9.686996E0,6.0982967E1,3.647683E0,2.512909E1,9.5532845E1,1.0899649E0,8.715002E0,7.644025E0,3.2942368E1,2.4396126E0,4.799589E-1,8.288412E0,5.6671983E-1,-9.036213E-2,8.699882E-1],"categories":[],"categories_nodes":[],"categories_segments":[],"categories_sizes":[],"default_left":[1,1,1,1,1,1,1,1,1,1,1,1,1,1,1,1,1,1,1,1,1,1,1,1,1,1,1,1,1,1,1,1,1,1,1,1,1,1,1,1,1,0,1,1,1,1,1,1,1,1,1,1,1,1,1,1,1,1,1,1,1,1,1,0,0,0,0,0,0,0,0,0,0,0,0,0,0,0,0,0,0,0,0,0,0,0,0,0,0,0,0,0,0,0,0,0,0,0,0,0,0,0,0,0,0,0,0,0,0,0,0,0,0,0,0,0,0,0,0,0,0,0,0,0,0],"id":9,"left_children":[1,3,5,7,9,11,13,15,17,19,21,23,25,27,29,31,33,35,37,39,41,43,45,47,49,51,53,55,57,59,61,63,65,67,69,71,73,75,77,79,81,-1,83,85,87,89,91,93,95,97,99,101,103,105,107,109,111,113,115,117,119,121,123,-1,-1,-1,-1,-1,-1,-1,-1,-1,-1,-1,-1,-1,-1,-1,-1,-1,-1,-1,-1,-1,-1,-1,-1,-1,-1,-1,-1,-1,-1,-1,-1,-1,-1,-1,-1,-1,-1,-1,-1,-1,-1,-1,-1,-1,-1,-1,-1,-1,-1,-1,-1,-1,-1,-1,-1,-1,-1,-1,-1,-1,-1],"loss_changes":[1.7279534E7,2.0622608E7,1.2544079E6,1.1951776E7,2.623369E7,2.2132815E6,1.7977206E5,7.884454E6,7.25285E5,4.1733148E7,1.522618E6,8.3942875E4,7.645162E6,1.3322206E5,5.3414812E4,2.0497328E6,5.679568E6,2.7933675E5,4.7404488E5,1.5386055E6,7.8970024E7,1.2723585E6,7.540707E4,1.6344891E4,6.12315E4,2.893128E6,3.6613262E3,1.8839258E4,4.8923644E5,6.605319E4,8.1263945E3,1.5812295E6,2.087205E5,4.336866E6,2.032797E6,3.5877266E3,3.3485725E5,8.825694E4,4.0175875E5,1.674981E4,2.752614E6,0E0,1.3529907E7,1.409032E6,1.0166152E4,4.578172E4,1.2174634E4,1.6966078E4,2.1535863E4,3.73779E4,1.02358125E5,3.792475E5,8.81987E5,7.1179375E1,2.08875E3,1.5315156E4,1.1293008E4,3.2522025E5,4.3818755E3,2.1092984E5,7.1638806E2,1.2421434E4,1.832883E2,0E0,0E0,0E0,0E0,0E0,0E0,0E0,0E0,0E0,0E0,0E0,0E0,0E0,0E0,0E0,0E0,0E0,0E0,0E0,0E0,0E0,0E0,0E0,0E0,0E0,0E0,0E0,0E0,0E0,0E0,0E0,0E0,0E0,0E0,0E0,0E0,0E0,0E0,0E0,0E0,0E0,0E0,0E0,0E0,0E0,0E0,0E0,0E0,0E0,0E0,0E0,0E0,0E0,0E0,0E0,0E0,0E0,0E0,0E0,0E0,0E0,0E0],"parents":[2147483647,0,0,1,1,2,2,3,3,4,4,5,5,6,6,7,7,8,8,9,9,10,10,11,11,12,12,13,13,14,14,15,15,16,16,17,17,18,18,19,19,20,20,21,21,22,22,23,23,24,24,25,25,26,26,27,27,28,28,29,29,30,30,31,31,32,32,33,33,34,34,35,35,36,36,37,37,38,38,39,39,40,40,42,42,43,43,44,44,45,45,46,46,47,47,48,48,49,49,50,50,51,51,52,52,53,53,54,54,55,55,56,56,57,57,58,58,59,59,60,60,61,61,62,62],"right_children":[2,4,6,8,10,12,14,16,18,20,22,24,26,28,30,32,34,36,38,40,42,44,46,48,50,52,54,56,58,60,62,64,66,68,70,72,74,76,78,80,82,-1,84,86,88,90,92,94,96,98,100,102,104,106,108,110,112,114,116,118,120,122,124,-1,-1,-1,-1,-1,-1,-1,-1,-1,-1,-1,-1,-1,-1,-1,-1,-1,-1,-1,-1,-1,-1,-1,-1,-1,-1,-1,-1,-1,-1,-1,-1,-1,-1,-1,-1,-1,-1,-1,-1,-1,-1,-1,-1,-1,-1,-1,-1,-1,-1,-1,-1,-1,-1,-1,-1,-1,-1,-1,-1,-1,-1],"split_conditions":[2.0205E3,1.45E1,1.5E0,4.5E0,1.5E0,1.75E1,4.5E0,1.65E1,6.5E0,2.05E1,6.5E0,1.95E1,1.85E1,1.65E1,1.35E1,4.5E0,1.5E0,7.5E0,7E0,4.35E1,2.25E1,8.55E1,8.5E0,6E0,2.965E2,1.95E1,2.05E1,3.05E1,1.85E1,1.85E1,3.25E1,1.075E2,1.45E1,2.75E1,2.0195E3,5.5E0,1.15E1,3.5E0,5.5E0,2.6E1,9.95E1,7.2931206E1,2.75E1,7.85E1,1.5E0,1.25E1,7.5E0,1.55E1,1.65E1,1.65E1,3.245E2,6.5E0,4.05E1,1.035E2,7.55E1,1.5E0,6E0,1.75E1,2.05E1,1.75E1,2.75E1,1.55E1,1.75E1,3.5601037E0,1.1527443E0,3.972344E-1,1.0988854E0,1.9112545E0,6.285536E0,2.4617248E0,-4.5954394E-3,-1.280605E-2,4.61205E-1,3.8066719E0,1.0432796E0,3.081748E0,1.1131768E0,8.496701E-1,2.833394E-1,7.2209245E-1,-2.2833951E-1,8.905655E0,-3.574241E-2,1.8998449E0,2.8266455E1,3.2810435E0,9.847098E0,-7.037643E-1,-2.2657583E-2,1.6965022E0,-3.390461E-2,5.159269E-1,-3.996395E-3,1.2969169E-1,3.3808613E-1,-2.5272316E-3,2.2899E-1,1.9403861E-1,6.335648E-1,1.0477357E0,2.9466304E-1,3.3635192E0,1.5570599E0,1.0433795E1,5.0545382E0,-8.1087474E-4,1.8028224E-2,1.7602706E-2,1.3100268E-1,3.600749E-1,9.686996E-2,6.0982966E-1,3.647683E-2,2.512909E-1,9.553284E-1,1.0899648E-2,8.7150015E-2,7.6440245E-2,3.2942367E-1,2.4396125E-2,4.7995886E-3,8.288412E-2,5.667198E-3,-9.036213E-4,8.699882E-3],"split_indices":[5,0,8,8,8,0,8,6,3,6,8,6,0,0,8,6,2,8,0,3,6,3,3,0,3,6,0,6,0,0,7,3,6,3,5,8,8,2,8,3,3,0,6,3,2,8,8,6,0,0,3,6,3,3,3,6,0,0,0,0,7,6,0,0,0,0,0,0,0,0,0,0,0,0,0,0,0,0,0,0,0,0,0,0,0,0,0,0,0,0,0,0,0,0,0,0,0,0,0,0,0,0,0,0,0,0,0,0,0,0,0,0,0,0,0,0,0,0,0,0,0,0,0,0,0],"split_type":[0,0,0,0,0,0,0,0,0,0,0,0,0,0,0,0,0,0,0,0,0,0,0,0,0,0,0,0,0,0,0,0,0,0,0,0,0,0,0,0,0,0,0,0,0,0,0,0,0,0,0,0,0,0,0,0,0,0,0,0,0,0,0,0,0,0,0,0,0,0,0,0,0,0,0,0,0,0,0,0,0,0,0,0,0,0,0,0,0,0,0,0,0,0,0,0,0,0,0,0,0,0,0,0,0,0,0,0,0,0,0,0,0,0,0,0,0,0,0,0,0,0,0,0,0],"sum_hessian":[9.388E3,2.449E3,6.939E3,2.339E3,1.1E2,1.007E3,5.932E3,8.58E2,1.481E3,3.1E1,7.9E1,7.43E2,2.64E2,1.307E3,4.625E3,4.39E2,4.19E2,2.7E1,1.454E3,2.1E1,1E1,4.9E1,3E1,4.6E2,2.83E2,8.8E1,1.76E2,7.36E2,5.71E2,2.946E3,1.679E3,1.19E2,3.2E2,1.05E2,3.14E2,8E0,1.9E1,1.2E1,1.442E3,6E0,1.5E1,2E0,8E0,4.1E1,8E0,7E0,2.3E1,2.42E2,2.18E2,2.04E2,7.9E1,5.6E1,3.2E1,8.9E1,8.7E1,7.2E2,1.6E1,2.65E2,3.06E2,2.198E3,7.48E2,8.36E2,8.43E2,4.3E1,7.6E1,2.7E2,5E1,3.5E1,7E1,2.76E2,3.8E1,2E0,6E0,1E1,9E0,6E0,6E0,1.38E2,1.304E3,2E0,4E0,1E1,5E0,6E0,2E0,3.8E1,3E0,3E0,5E0,5E0,2E0,5E0,1.8E1,1.93E2,4.9E1,1.66E2,5.2E1,1.83E2,2.1E1,2.8E1,5.1E1,1.9E1,3.7E1,4E0,2.8E1,3E1,5.9E1,2.2E1,6.5E1,2.2E1,6.98E2,1.1E1,5E0,1.23E2,1.42E2,1.73E2,1.33E2,1.795E3,4.03E2,3.56E2,3.92E2,4.44E2,3.92E2,5.24E2,3.19E2],"tree_param":{"num_deleted":"0","num_feature":"9","num_nodes":"125","size_leaf_vector":"0"}},{"base_weights":[4.0545788E1,1.12065544E2,1.5291615E1,9.218409E1,5.3017847E2,4.760062E1,9.799828E0,1.8509966E2,3.8265976E1,1.2894757E3,2.1983229E2,1.9847397E1,1.2533948E2,2.0049896E1,6.8995056E0,9.2061516E1,2.8212747E2,1.9640796E2,3.5196396E1,4.4490112E2,2.8614E3,3.2575626E2,4.1895824E1,1.1550557E1,3.3245266E1,3.619567E2,5.654338E0,1.1222032E1,3.1389208E1,9.438892E0,2.4408908E0,2.0249911E2,5.048963E1,4.8114093E2,2.142622E2,3.514001E1,2.5915814E2,2.2394444E2,3.3471573E1,1.4561023E1,6.053686E2,7.2445005E3,1.0824329E3,3.9477832E2,-3.2541744E1,1.249144E2,1.2477304E1,3.8885624E1,1.0222696E1,4.7303276E1,1.7599028E1,2.1969032E2,5.9672107E2,1.1624033E0,1.0184108E1,6.0724144E0,1.6176935E1,6.244601E1,4.3778095E0,1.2172541E1,1.4005328E0,4.626096E0,2.7091745E-1,3.525312E2,1.1413666E2,3.9327675E1,1.0881122E2,1.8926729E2,6.2235657E2,2.4371965E2,-4.5506638E-1,-1.2720677E0,4.5725185E1,3.772066E2,1.0338901E2,3.055333E2,1.10363525E2,8.412346E1,2.8050817E1,7.172785E1,-2.265128E1,8.824695E2,-3.5444565E0,1.8835606E2,2.807801E3,3.2490747E2,9.773245E2,-6.984861E1,-2.246877E0,1.6823647E2,-3.3678577E0,5.116275E1,-3.958534E-1,5.1247585E1,-5.605414E-1,1.5492986E1,4.3516016E0,4.1568882E1,1.5769115E2,2.2971637E0,6.725829E1,3.331566E2,1.5418991E2,1.0350325E3,5.0057358E2,1.7279692E0,-2.212492E-1,2.3237556E1,8.212671E0,3.566307E1,4.058756E0,2.0237276E1,3.0943289E0,2.4879826E1,9.45842E1,1.0791278E0,8.628502E0,7.5676274E0,3.2613758E1,2.4152849E0,4.7517148E-1,8.205714E0,5.6106704E-1,-8.9460246E-2,8.613155E-1],"categories":[],"categories_nodes":[],"categories_segments":[],"categories_sizes":[],"default_left":[1,1,1,1,1,1,1,1,1,1,1,1,1,1,1,1,1,1,1,1,1,1,1,1,1,1,1,1,1,1,1,1,1,1,1,1,1,1,1,1,1,0,1,1,1,1,1,1,1,1,1,1,1,1,1,1,1,1,1,1,1,1,1,0,0,0,0,0,0,0,0,0,0,0,0,0,0,0,0,0,0,0,0,0,0,0,0,0,0,0,0,0,0,0,0,0,0,0,0,0,0,0,0,0,0,0,0,0,0,0,0,0,0,0,0,0,0,0,0,0,0,0,0,0,0],"id":10,"left_children":[1,3,5,7,9,11,13,15,17,19,21,23,25,27,29,31,33,35,37,39,41,43,45,47,49,51,53,55,57,59,61,63,65,67,69,71,73,75,77,79,81,-1,83,85,87,89,91,93,95,97,99,101,103,105,107,109,111,113,115,117,119,121,123,-1,-1,-1,-1,-1,-1,-1,-1,-1,-1,-1,-1,-1,-1,-1,-1,-1,-1,-1,-1,-1,-1,-1,-1,-1,-1,-1,-1,-1,-1,-1,-1,-1,-1,-1,-1,-1,-1,-1,-1,-1,-1,-1,-1,-1,-1,-1,-1,-1,-1,-1,-1,-1,-1,-1,-1,-1,-1,-1,-1,-1,-1],"loss_changes":[1.6956436E7,2.0317224E7,1.2309268E6,1.171592E7,2.5873124E7,2.1722762E6,1.7624088E5,7.728466E6,7.12494E5,4.1210388E7,1.4941712E6,8.231903E4,7.502638E6,1.3058106E5,5.2353203E4,2.0098592E6,5.569472E6,2.7424175E5,4.6618988E5,1.510408E6,7.792962E7,1.249369E6,7.41522E4,1.6335484E4,6.163475E4,2.841424E6,3.5896572E3,1.870696E4,4.7957044E5,6.47405E4,7.965034E3,1.5506275E6,2.0468625E5,4.251224E6,1.992493E6,3.5270195E3,3.2876725E5,8.675044E4,3.9384675E5,1.6515895E4,2.7028125E6,0E0,1.3354638E7,1.391986E6,1.0014918E4,4.502622E4,1.1972346E4,1.0268998E4,1.3578168E4,8.776309E4,1.0318908E5,3.722595E5,8.72594E5,7.081151E1,2.073754E3,2.1484781E4,1.985732E4,3.1879106E5,4.2953457E3,2.0674512E5,7.021726E2,1.2174795E4,1.7965178E2,0E0,0E0,0E0,0E0,0E0,0E0,0E0,0E0,0E0,0E0,0E0,0E0,0E0,0E0,0E0,0E0,0E0,0E0,0E0,0E0,0E0,0E0,0E0,0E0,0E0,0E0,0E0,0E0,0E0,0E0,0E0,0E0,0E0,0E0,0E0,0E0,0E0,0E0,0E0,0E0,0E0,0E0,0E0,0E0,0E0,0E0,0E0,0E0,0E0,0E0,0E0,0E0,0E0,0E0,0E0,0E0,0E0,0E0,0E0,0E0,0E0,0E0],"parents":[2147483647,0,0,1,1,2,2,3,3,4,4,5,5,6,6,7,7,8,8,9,9,10,10,11,11,12,12,13,13,14,14,15,15,16,16,17,17,18,18,19,19,20,20,21,21,22,22,23,23,24,24,25,25,26,26,27,27,28,28,29,29,30,30,31,31,32,32,33,33,34,34,35,35,36,36,37,37,38,38,39,39,40,40,42,42,43,43,44,44,45,45,46,46,47,47,48,48,49,49,50,50,51,51,52,52,53,53,54,54,55,55,56,56,57,57,58,58,59,59,60,60,61,61,62,62],"right_children":[2,4,6,8,10,12,14,16,18,20,22,24,26,28,30,32,34,36,38,40,42,44,46,48,50,52,54,56,58,60,62,64,66,68,70,72,74,76,78,80,82,-1,84,86,88,90,92,94,96,98,100,102,104,106,108,110,112,114,116,118,120,122,124,-1,-1,-1,-1,-1,-1,-1,-1,-1,-1,-1,-1,-1,-1,-1,-1,-1,-1,-1,-1,-1,-1,-1,-1,-1,-1,-1,-1,-1,-1,-1,-1,-1,-1,-1,-1,-1,-1,-1,-1,-1,-1,-1,-1,-1,-1,-1,-1,-1,-1,-1,-1,-1,-1,-1,-1,-1,-1,-1,-1,-1,-1],"split_conditions":[2.0205E3,1.45E1,1.5E0,4.5E0,1.5E0,1.75E1,4.5E0,1.65E1,6.5E0,2.05E1,6.5E0,1.95E1,1.85E1,1.65E1,1.35E1,4.5E0,1.5E0,7.5E0,7E0,4.35E1,2.25E1,8.55E1,8.5E0,1.5E0,6E0,1.95E1,2.05E1,1.55E1,1.85E1,1.85E1,3.25E1,1.075E2,1.45E1,2.75E1,2.0195E3,5.5E0,1.15E1,3.5E0,5.5E0,2.6E1,9.95E1,7.2445E1,2.75E1,7.85E1,1.5E0,1.25E1,7.5E0,2.35E1,6E0,3.05E1,1.65E1,6.5E0,4.05E1,3.95E1,4E0,1.5E0,6E0,1.75E1,2.05E1,1.75E1,2.75E1,1.55E1,1.75E1,3.5253117E0,1.1413666E0,3.9327675E-1,1.0881121E0,1.8926729E0,6.2235656E0,2.4371965E0,-4.5506638E-3,-1.2720676E-2,4.5725185E-1,3.7720659E0,1.03389E0,3.055333E0,1.1036352E0,8.4123456E-1,2.8050816E-1,7.172785E-1,-2.2651279E-1,8.824695E0,-3.5444565E-2,1.8835605E0,2.807801E1,3.2490747E0,9.773245E0,-6.984861E-1,-2.246877E-2,1.6823646E0,-3.3678576E-2,5.116275E-1,-3.958534E-3,5.1247585E-1,-5.6054136E-3,1.5492985E-1,4.3516014E-2,4.156888E-1,1.5769114E0,2.2971638E-2,6.725829E-1,3.3315659E0,1.5418991E0,1.0350325E1,5.005736E0,1.7279692E-2,-2.2124918E-3,2.3237556E-1,8.2126714E-2,3.566307E-1,4.058756E-2,2.0237276E-1,3.0943288E-2,2.4879825E-1,9.4584197E-1,1.07912775E-2,8.628502E-2,7.567627E-2,3.2613757E-1,2.4152849E-2,4.751715E-3,8.205714E-2,5.6106704E-3,-8.9460245E-4,8.613154E-3],"split_indices":[5,0,8,8,8,0,8,6,3,6,8,6,0,0,8,6,2,8,0,3,6,3,3,6,0,6,0,6,0,0,7,3,6,3,5,8,8,2,8,3,3,0,6,3,2,8,8,7,0,6,0,6,3,7,6,6,0,0,0,0,7,6,0,0,0,0,0,0,0,0,0,0,0,0,0,0,0,0,0,0,0,0,0,0,0,0,0,0,0,0,0,0,0,0,0,0,0,0,0,0,0,0,0,0,0,0,0,0,0,0,0,0,0,0,0,0,0,0,0,0,0,0,0,0,0],"split_type":[0,0,0,0,0,0,0,0,0,0,0,0,0,0,0,0,0,0,0,0,0,0,0,0,0,0,0,0,0,0,0,0,0,0,0,0,0,0,0,0,0,0,0,0,0,0,0,0,0,0,0,0,0,0,0,0,0,0,0,0,0,0,0,0,0,0,0,0,0,0,0,0,0,0,0,0,0,0,0,0,0,0,0,0,0,0,0,0,0,0,0,0,0,0,0,0,0,0,0,0,0,0,0,0,0,0,0,0,0,0,0,0,0,0,0,0,0,0,0,0,0,0,0,0,0],"sum_hessian":[9.388E3,2.449E3,6.939E3,2.339E3,1.1E2,1.007E3,5.932E3,8.58E2,1.481E3,3.1E1,7.9E1,7.43E2,2.64E2,1.307E3,4.625E3,4.39E2,4.19E2,2.7E1,1.454E3,2.1E1,1E1,4.9E1,3E1,4.6E2,2.83E2,8.8E1,1.76E2,7.36E2,5.71E2,2.946E3,1.679E3,1.19E2,3.2E2,1.05E2,3.14E2,8E0,1.9E1,1.2E1,1.442E3,6E0,1.5E1,2E0,8E0,4.1E1,8E0,7E0,2.3E1,2E1,4.4E2,1.48E2,1.35E2,5.6E1,3.2E1,8.9E1,8.7E1,3.62E2,3.74E2,2.65E2,3.06E2,2.198E3,7.48E2,8.36E2,8.43E2,4.3E1,7.6E1,2.7E2,5E1,3.5E1,7E1,2.76E2,3.8E1,2E0,6E0,1E1,9E0,6E0,6E0,1.38E2,1.304E3,2E0,4E0,1E1,5E0,6E0,2E0,3.8E1,3E0,3E0,5E0,5E0,2E0,5E0,1.8E1,1.5E1,5E0,2.31E2,2.09E2,1.42E2,6E0,1.04E2,3.1E1,1.9E1,3.7E1,4E0,2.8E1,6.3E1,2.6E1,1E1,7.7E1,2.2E1,3.4E2,2.85E2,8.9E1,1.23E2,1.42E2,1.73E2,1.33E2,1.795E3,4.03E2,3.56E2,3.92E2,4.44E2,3.92E2,5.24E2,3.19E2],"tree_param":{"num_deleted":"0","num_feature":"9","num_nodes":"125","size_leaf_vector":"0"}},{"base_weights":[4.0159477E1,1.1100749E2,1.5142502E1,9.127389E1,5.2601306E2,4.7148376E1,9.702242E0,1.832681E2,3.7890423E1,1.2800712E3,2.178147E2,1.9653484E1,1.24163666E2,1.9850866E1,6.830624E0,9.115487E1,2.793313E2,1.946314E2,3.484806E1,4.4087393E2,2.8420955E3,3.2274472E2,4.1546425E1,9.014698E0,2.9930681E1,3.5856442E2,5.5996566E0,1.1110666E1,3.1077574E1,9.34465E0,2.4165387E0,2.0051302E2,4.998935E1,4.764061E2,2.121273E2,3.4838005E1,2.5680685E2,2.2202492E2,3.3137634E1,1.4485523E1,5.9986426E2,7.1962036E3,1.0749376E3,3.9114056E2,-3.2296432E1,1.23871346E2,1.2373684E1,3.8520905E1,7.203041E0,4.3666523E1,1.4739368E1,2.1757892E2,5.9121924E2,1.1509467E0,1.0085841E1,1.0324759E1,4.3788845E1,6.1826042E1,4.3343477E0,1.2050998E1,1.3865662E0,4.57994E0,2.682174E-1,3.49086E2,1.1301011E2,3.893585E1,1.0774444E2,1.874272E2,6.162207E2,2.4129124E2,-4.506324E-1,-1.2635874E0,4.5333256E1,3.7377744E2,1.0245851E2,3.0291443E2,1.0941756E2,8.328828E1,2.7770525E1,7.124967E1,-2.247007E1,8.744471E2,-3.5149198E0,1.867416E2,2.7890825E3,3.217417E2,9.699945E2,-6.9324745E1,-2.2281532E0,1.6683449E2,-3.3454049E0,5.0736397E1,-3.9210317E-1,-8.320381E-1,5.08707E1,1.3264599E1,3.2332003E0,3.9331226E1,1.5633951E2,1.5113217E0,5.8481922E1,3.299916E2,1.526886E2,6.324297E2,-3.1695686E1,-9.576748E-2,1.7759E0,-9.6151954E-1,1.2188875E1,3.5321945E1,9.487476E0,6.023845E1,3.5914998E0,2.4633034E1,9.364497E1,1.0683986E0,8.542861E0,7.491993E0,3.228843E1,2.3911998E0,4.7043183E-1,8.123842E0,5.5547065E-1,-8.856735E-2,8.527292E-1],"categories":[],"categories_nodes":[],"categories_segments":[],"categories_sizes":[],"default_left":[1,1,1,1,1,1,1,1,1,1,1,1,1,1,1,1,1,1,1,1,1,1,1,1,1,1,1,1,1,1,1,1,1,1,1,1,1,1,1,1,1,0,1,1,1,1,1,1,1,1,1,1,1,1,1,1,1,1,1,1,1,1,1,0,0,0,0,0,0,0,0,0,0,0,0,0,0,0,0,0,0,0,0,0,0,0,0,0,0,0,0,0,0,0,0,0,0,0,0,0,0,0,0,0,0,0,0,0,0,0,0,0,0,0,0,0,0,0,0,0,0,0,0,0,0],"id":11,"left_children":[1,3,5,7,9,11,13,15,17,19,21,23,25,27,29,31,33,35,37,39,41,43,45,47,49,51,53,55,57,59,61,63,65,67,69,71,73,75,77,79,81,-1,83,85,87,89,91,93,95,97,99,101,103,105,107,109,111,113,115,117,119,121,123,-1,-1,-1,-1,-1,-1,-1,-1,-1,-1,-1,-1,-1,-1,-1,-1,-1,-1,-1,-1,-1,-1,-1,-1,-1,-1,-1,-1,-1,-1,-1,-1,-1,-1,-1,-1,-1,-1,-1,-1,-1,-1,-1,-1,-1,-1,-1,-1,-1,-1,-1,-1,-1,-1,-1,-1,-1,-1,-1,-1,-1,-1],"loss_changes":[1.6639407E7,2.0016398E7,1.2079374E6,1.1484726E7,2.5517524E7,2.1320268E6,1.7276962E5,7.575564E6,6.9992825E5,4.0694084E7,1.4662582E6,8.1076875E4,7.362738E6,1.2800047E5,5.1312734E4,1.9707618E6,5.461508E6,2.6923962E5,4.5846438E5,1.4827265E6,7.69029E7,1.2267995E6,7.29182E4,1.934056E4,7.8231875E4,2.790647E6,3.5209092E3,1.8475547E4,4.7009525E5,6.345383E4,7.806876E3,1.5206175E6,2.0073E5,4.16727E6,1.952987E6,3.4673398E3,3.2278762E5,8.5269625E4,3.860905E5,1.6285254E4,2.653914E6,0E0,1.318163E7,1.3751285E6,9.865932E3,4.4283188E4,1.1773418E4,1.0248344E4,8.307121E3,9.056825E4,1.04643375E5,3.654E5,8.67176E5,7.029251E1,2.0562236E3,1.4755195E4,1.1024574E4,3.1248875E5,4.210525E3,2.0264347E5,6.88239E2,1.1933055E4,1.7608743E2,0E0,0E0,0E0,0E0,0E0,0E0,0E0,0E0,0E0,0E0,0E0,0E0,0E0,0E0,0E0,0E0,0E0,0E0,0E0,0E0,0E0,0E0,0E0,0E0,0E0,0E0,0E0,0E0,0E0,0E0,0E0,0E0,0E0,0E0,0E0,0E0,0E0,0E0,0E0,0E0,0E0,0E0,0E0,0E0,0E0,0E0,0E0,0E0,0E0,0E0,0E0,0E0,0E0,0E0,0E0,0E0,0E0,0E0,0E0,0E0,0E0,0E0],"parents":[2147483647,0,0,1,1,2,2,3,3,4,4,5,5,6,6,7,7,8,8,9,9,10,10,11,11,12,12,13,13,14,14,15,15,16,16,17,17,18,18,19,19,20,20,21,21,22,22,23,23,24,24,25,25,26,26,27,27,28,28,29,29,30,30,31,31,32,32,33,33,34,34,35,35,36,36,37,37,38,38,39,39,40,40,42,42,43,43,44,44,45,45,46,46,47,47,48,48,49,49,50,50,51,51,52,52,53,53,54,54,55,55,56,56,57,57,58,58,59,59,60,60,61,61,62,62],"right_children":[2,4,6,8,10,12,14,16,18,20,22,24,26,28,30,32,34,36,38,40,42,44,46,48,50,52,54,56,58,60,62,64,66,68,70,72,74,76,78,80,82,-1,84,86,88,90,92,94,96,98,100,102,104,106,108,110,112,114,116,118,120,122,124,-1,-1,-1,-1,-1,-1,-1,-1,-1,-1,-1,-1,-1,-1,-1,-1,-1,-1,-1,-1,-1,-1,-1,-1,-1,-1,-1,-1,-1,-1,-1,-1,-1,-1,-1,-1,-1,-1,-1,-1,-1,-1,-1,-1,-1,-1,-1,-1,-1,-1,-1,-1,-1,-1,-1,-1,-1,-1,-1,-1,-1,-1],"split_conditions":[2.0205E3,1.45E1,1.5E0,4.5E0,1.5E0,1.75E1,4.5E0,1.65E1,6.5E0,2.05E1,6.5E0,1.55E1,1.85E1,1.65E1,1.35E1,4.5E0,1.5E0,7.5E0,7E0,4.35E1,2.25E1,8.55E1,8.5E0,1.5E0,6E0,1.95E1,2.05E1,3.05E1,1.85E1,1.85E1,3.25E1,1.075E2,1.45E1,2.75E1,2.0195E3,5.5E0,1.15E1,3.5E0,5.5E0,2.6E1,9.95E1,7.1962036E1,2.75E1,7.85E1,1.5E0,1.25E1,7.5E0,2E0,6.5E0,3.05E1,1.65E1,6.5E0,3.46E2,1.035E2,4.75E1,1.5E0,6E0,1.75E1,2.05E1,1.75E1,2.75E1,1.55E1,1.75E1,3.49086E0,1.1301011E0,3.8935846E-1,1.0774443E0,1.874272E0,6.162207E0,2.4129124E0,-4.506324E-3,-1.2635874E-2,4.5333254E-1,3.7377744E0,1.0245851E0,3.0291443E0,1.0941756E0,8.3288276E-1,2.7770525E-1,7.124967E-1,-2.2470069E-1,8.744471E0,-3.5149198E-2,1.8674159E0,2.7890825E1,3.217417E0,9.6999445E0,-6.9324744E-1,-2.2281531E-2,1.6683449E0,-3.345405E-2,5.07364E-1,-3.9210315E-3,-8.320381E-3,5.08707E-1,1.3264598E-1,3.2332003E-2,3.9331225E-1,1.563395E0,1.5113216E-2,5.848192E-1,3.299916E0,1.526886E0,6.324297E0,-3.1695685E-1,-9.576748E-4,1.7758999E-2,-9.615195E-3,1.2188875E-1,3.5321945E-1,9.487476E-2,6.0238445E-1,3.5915E-2,2.4633034E-1,9.364497E-1,1.0683985E-2,8.542861E-2,7.4919924E-2,3.228843E-1,2.3911998E-2,4.704318E-3,8.123842E-2,5.5547063E-3,-8.8567345E-4,8.527292E-3],"split_indices":[5,0,8,8,8,0,8,6,3,6,8,6,0,0,8,6,2,8,0,3,6,3,3,6,0,6,0,6,0,0,7,3,6,3,5,8,8,2,8,3,3,0,6,3,2,8,8,0,6,6,0,6,3,3,3,6,0,0,0,0,7,6,0,0,0,0,0,0,0,0,0,0,0,0,0,0,0,0,0,0,0,0,0,0,0,0,0,0,0,0,0,0,0,0,0,0,0,0,0,0,0,0,0,0,0,0,0,0,0,0,0,0,0,0,0,0,0,0,0,0,0,0,0,0,0],"split_type":[0,0,0,0,0,0,0,0,0,0,0,0,0,0,0,0,0,0,0,0,0,0,0,0,0,0,0,0,0,0,0,0,0,0,0,0,0,0,0,0,0,0,0,0,0,0,0,0,0,0,0,0,0,0,0,0,0,0,0,0,0,0,0,0,0,0,0,0,0,0,0,0,0,0,0,0,0,0,0,0,0,0,0,0,0,0,0,0,0,0,0,0,0,0,0,0,0,0,0,0,0,0,0,0,0,0,0,0,0,0,0,0,0,0,0,0,0,0,0,0,0,0,0,0,0],"sum_hessian":[9.388E3,2.449E3,6.939E3,2.339E3,1.1E2,1.007E3,5.932E3,8.58E2,1.481E3,3.1E1,7.9E1,7.43E2,2.64E2,1.307E3,4.625E3,4.39E2,4.19E2,2.7E1,1.454E3,2.1E1,1E1,4.9E1,3E1,3.66E2,3.77E2,8.8E1,1.76E2,7.36E2,5.71E2,2.946E3,1.679E3,1.19E2,3.2E2,1.05E2,3.14E2,8E0,1.9E1,1.2E1,1.442E3,6E0,1.5E1,2E0,8E0,4.1E1,8E0,7E0,2.3E1,2E1,3.46E2,1.97E2,1.8E2,5.6E1,3.2E1,8.9E1,8.7E1,7.2E2,1.6E1,2.65E2,3.06E2,2.198E3,7.48E2,8.36E2,8.43E2,4.3E1,7.6E1,2.7E2,5E1,3.5E1,7E1,2.76E2,3.8E1,2E0,6E0,1E1,9E0,6E0,6E0,1.38E2,1.304E3,2E0,4E0,1E1,5E0,6E0,2E0,3.8E1,3E0,3E0,5E0,5E0,2E0,5E0,1.8E1,5E0,1.5E1,1.36E2,2.1E2,1.91E2,6E0,1.39E2,4.1E1,1.9E1,3.7E1,3E1,2E0,3E1,5.9E1,1.4E1,7.3E1,2.2E1,6.98E2,1.1E1,5E0,1.23E2,1.42E2,1.73E2,1.33E2,1.795E3,4.03E2,3.56E2,3.92E2,4.44E2,3.92E2,5.24E2,3.19E2],"tree_param":{"num_deleted":"0","num_feature":"9","num_nodes":"125","size_leaf_vector":"0"}},{"base_weights":[3.9775913E1,1.0995955E2,1.4993537E1,9.037267E1,5.218814E2,4.6690964E1,9.605706E0,1.8145465E2,3.7518562E1,1.2707366E3,2.158158E2,1.9461279E1,1.229634E2,1.9654165E1,6.7624307E0,9.025716E1,2.7656287E2,1.928709E2,3.4503178E1,4.3688327E2,2.8229219E3,3.1976132E2,4.119994E1,8.926364E0,2.9638138E1,3.551005E2,5.5443892E0,1.1001034E1,3.0769033E1,9.2513485E0,2.3924296E0,1.985464E2,4.9494026E1,4.7171786E2,2.1001367E2,3.453859E1,2.544769E2,2.2012184E2,3.2807026E1,1.4410352E1,5.9441E2,7.148229E3,1.0674948E3,3.8753674E2,-3.205297E1,1.2283699E2,1.2270925E1,3.8159523E1,7.131486E0,4.3239742E1,1.4595289E1,2.1548781E2,5.854891E2,1.1396239E0,9.9862585E0,5.902514E0,1.5907065E1,6.1212227E1,4.2913175E0,1.1930669E1,1.3727386E0,4.534244E0,2.655443E-1,3.4567447E2,1.11894684E2,3.8547924E1,1.0668812E2,1.8560498E2,6.1014526E2,2.3888704E2,-4.4624165E-1,-1.2551633E0,4.4944683E1,3.7037946E2,1.01536385E2,3.0031802E2,1.0847969E2,8.246138E1,2.7493032E1,7.0774666E1,-2.229031E1,8.6649756E2,-3.485629E0,1.8514095E2,2.7704885E3,3.1860678E2,9.627196E2,-6.88048E1,-2.2095852E0,1.654442E2,-3.3231022E0,5.0313595E1,-3.8838843E-1,5.0419483E1,-8.936214E-1,1.313292E1,3.2010217E0,3.893996E1,1.5499947E2,1.4963164E0,5.7911026E1,3.268567E2,1.5120189E2,1.0216927E3,4.9009225E2,1.7016666E0,-2.3483352E-1,2.293941E1,8.031503E0,3.4984085E1,3.923691E0,1.9921549E1,2.9731843E0,2.4388689E1,9.271507E1,1.057776E0,8.45807E0,7.4171147E0,3.1966345E1,2.3673546E0,4.6573952E-1,8.042786E0,5.4993004E-1,-8.768336E-2,8.4422857E-1],"categories":[],"categories_nodes":[],"categories_segments":[],"categories_sizes":[],"default_left":[1,1,1,1,1,1,1,1,1,1,1,1,1,1,1,1,1,1,1,1,1,1,1,1,1,1,1,1,1,1,1,1,1,1,1,1,1,1,1,1,1,0,1,1,1,1,1,1,1,1,1,1,1,1,1,1,1,1,1,1,1,1,1,0,0,0,0,0,0,0,0,0,0,0,0,0,0,0,0,0,0,0,0,0,0,0,0,0,0,0,0,0,0,0,0,0,0,0,0,0,0,0,0,0,0,0,0,0,0,0,0,0,0,0,0,0,0,0,0,0,0,0,0,0,0],"id":12,"left_children":[1,3,5,7,9,11,13,15,17,19,21,23,25,27,29,31,33,35,37,39,41,43,45,47,49,51,53,55,57,59,61,63,65,67,69,71,73,75,77,79,81,-1,83,85,87,89,91,93,95,97,99,101,103,105,107,109,111,113,115,117,119,121,123,-1,-1,-1,-1,-1,-1,-1,-1,-1,-1,-1,-1,-1,-1,-1,-1,-1,-1,-1,-1,-1,-1,-1,-1,-1,-1,-1,-1,-1,-1,-1,-1,-1,-1,-1,-1,-1,-1,-1,-1,-1,-1,-1,-1,-1,-1,-1,-1,-1,-1,-1,-1,-1,-1,-1,-1,-1,-1,-1,-1,-1,-1],"loss_changes":[1.63288E7,1.9720078E7,1.1847675E6,1.1258086E7,2.516682E7,2.0910962E6,1.6937606E5,7.425688E6,6.8758375E5,4.0184144E7,1.4388688E6,7.950144E4,7.2212175E6,1.25462875E5,5.0292875E4,1.932425E6,5.355642E6,2.6432888E5,4.5086675E5,1.4555505E6,7.588968E7,1.2046395E6,7.1704734E4,1.898434E4,7.671031E4,2.736534E6,3.4516934E3,1.8341055E4,4.6080725E5,6.2192812E4,